0.8660254037844387	0.49999999999999994	1.0	0.0	0.0	0.5000000000000001	0.8660254037844386	1.0	0.0	0.0	-0.44999999999999984	0.7794228634059949	0.0	1.0	0.0	1.0	0.0	1.0	0.0	0.0	0.44026533448935495
6.123233995736766e-17	1.0	1.0	0.0	0.0	-0.49999999999999983	0.8660254037844387	1.0	0.0	0.0	-0.9	1.1021821192326179e-16	0.0	1.0	0.0	0.5000000000000001	0.8660254037844386	1.0	0.0	0.0	0.6197973292230342
0.8660254037844387	0.49999999999999994	1.0	0.0	0.0	0.5000000000000001	0.8660254037844386	1.0	0.0	0.0	-0.44999999999999984	0.7794228634059949	0.0	1.0	0.0	1.0	0.0	1.0	0.0	0.0	0.7522535540784168
0.8660254037844384	-0.5000000000000004	1.0	0.0	0.0	1.0	0.0	1.0	0.0	0.0	0.4500000000000001	0.7794228634059948	0.0	1.0	0.0	0.5000000000000001	-0.8660254037844386	1.0	0.0	0.0	0.5066448307024666
0.8660254037844387	0.49999999999999994	1.0	0.0	0.0	0.5000000000000001	0.8660254037844386	1.0	0.0	0.0	-0.44999999999999984	0.7794228634059949	0.0	1.0	0.0	1.0	0.0	1.0	0.0	0.0	0.5508030221708435
-1.8369701987210297e-16	-1.0	1.0	0.0	0.0	0.5000000000000001	-0.8660254037844386	1.0	0.0	0.0	0.9	0.0	0.0	1.0	0.0	-0.5000000000000004	-0.8660254037844384	1.0	0.0	0.0	0.6786535100394974
1.0	0.0	1.0	0.0	0.0	0.8660254037844387	0.49999999999999994	1.0	0.0	0.0	5.5109105961630896e-17	0.9	0.0	1.0	0.0	0.8660254037844384	-0.5000000000000004	1.0	0.0	0.0	0.5322608021505673
-1.8369701987210297e-16	-1.0	1.0	0.0	0.0	0.5000000000000001	-0.8660254037844386	1.0	0.0	0.0	0.9	0.0	0.0	1.0	0.0	-0.5000000000000004	-0.8660254037844384	1.0	0.0	0.0	0.34194844693998316
-0.44999999999999984	0.7794228634059949	0.0	1.0	0.0	-0.5000000000000004	-0.8660254037844384	1.0	0.0	0.0	-1.8369701987210297e-16	-1.0	1.0	0.0	0.0	-0.44999999999999984	0.7794228634059949	0.0	1.0	0.0	0.8712870832931937
1.0	0.0	1.0	0.0	0.0	0.8660254037844387	0.49999999999999994	1.0	0.0	0.0	5.5109105961630896e-17	0.9	0.0	1.0	0.0	0.8660254037844384	-0.5000000000000004	1.0	0.0	0.0	0.476978196147512
1.0	0.0	1.0	0.0	0.0	0.8660254037844387	0.49999999999999994	1.0	0.0	0.0	5.5109105961630896e-17	0.9	0.0	1.0	0.0	0.8660254037844384	-0.5000000000000004	1.0	0.0	0.0	0.3423567244218745
6.123233995736766e-17	1.0	1.0	0.0	0.0	-0.49999999999999983	0.8660254037844387	1.0	0.0	0.0	-0.9	1.1021821192326179e-16	0.0	1.0	0.0	0.5000000000000001	0.8660254037844386	1.0	0.0	0.0	0.35845386693824
6.123233995736766e-17	1.0	1.0	0.0	0.0	-0.49999999999999983	0.8660254037844387	1.0	0.0	0.0	-0.9	1.1021821192326179e-16	0.0	1.0	0.0	0.5000000000000001	0.8660254037844386	1.0	0.0	0.0	0.5869653973365628
0.9	0.0	0.0	1.0	0.0	0.7794228634059949	0.44999999999999996	0.0	1.0	0.0	6.123233995736766e-17	1.0	1.0	0.0	0.0	0.7794228634059945	-0.4500000000000004	0.0	1.0	0.0	0.46792269334691194
0.5000000000000001	-0.8660254037844386	1.0	0.0	0.0	0.8660254037844384	-0.5000000000000004	1.0	0.0	0.0	0.7794228634059949	0.44999999999999996	0.0	1.0	0.0	-1.8369701987210297e-16	-1.0	1.0	0.0	0.0	0.5413071301762933
-0.49999999999999983	0.8660254037844387	1.0	0.0	0.0	-0.8660254037844387	0.49999999999999994	1.0	0.0	0.0	-0.779422863405995	-0.4499999999999998	0.0	1.0	0.0	6.123233995736766e-17	1.0	1.0	0.0	0.0	0.6511842340668565
0.8660254037844387	0.49999999999999994	1.0	0.0	0.0	0.5000000000000001	0.8660254037844386	1.0	0.0	0.0	-0.44999999999999984	0.7794228634059949	0.0	1.0	0.0	1.0	0.0	1.0	0.0	0.0	0.5203611191390392
-0.8660254037844388	-0.4999999999999998	1.0	0.0	0.0	-0.5000000000000004	-0.8660254037844384	1.0	0.0	0.0	0.4500000000000001	-0.7794228634059948	0.0	1.0	0.0	-1.0	1.2246467991473532e-16	1.0	0.0	0.0	0.47195041951658107
6.123233995736766e-17	1.0	1.0	0.0	0.0	-0.49999999999999983	0.8660254037844387	1.0	0.0	0.0	-0.9	1.1021821192326179e-16	0.0	1.0	0.0	0.5000000000000001	0.8660254037844386	1.0	0.0	0.0	0.6675795567666258
0.5000000000000001	0.8660254037844386	1.0	0.0	0.0	6.123233995736766e-17	1.0	1.0	0.0	0.0	-0.7794228634059949	0.44999999999999996	0.0	1.0	0.0	0.8660254037844387	0.49999999999999994	1.0	0.0	0.0	0.5780796278711311
0.5000000000000001	-0.8660254037844386	1.0	0.0	0.0	0.8660254037844384	-0.5000000000000004	1.0	0.0	0.0	0.7794228634059949	0.44999999999999996	0.0	1.0	0.0	-1.8369701987210297e-16	-1.0	1.0	0.0	0.0	0.7618870676960764
-0.7794228634059949	0.44999999999999996	0.0	1.0	0.0	-0.9	1.1021821192326179e-16	0.0	1.0	0.0	-0.5000000000000004	-0.8660254037844384	1.0	0.0	0.0	-0.44999999999999984	0.7794228634059949	0.0	1.0	0.0	0.5825431558473134
0.9	0.0	0.0	1.0	0.0	0.7794228634059949	0.44999999999999996	0.0	1.0	0.0	6.123233995736766e-17	1.0	1.0	0.0	0.0	0.7794228634059945	-0.4500000000000004	0.0	1.0	0.0	0.3892902852896247
5.5109105961630896e-17	0.9	0.0	1.0	0.0	-0.44999999999999984	0.7794228634059949	0.0	1.0	0.0	-1.0	1.2246467991473532e-16	1.0	0.0	0.0	0.4500000000000001	0.7794228634059948	0.0	1.0	0.0	0.34229708838519374
0.8660254037844387	0.49999999999999994	1.0	0.0	0.0	0.5000000000000001	0.8660254037844386	1.0	0.0	0.0	-0.44999999999999984	0.7794228634059949	0.0	1.0	0.0	1.0	0.0	1.0	0.0	0.0	0.6290042158090546
-1.6532731788489269e-16	-0.9	0.0	1.0	0.0	0.4500000000000001	-0.7794228634059948	0.0	1.0	0.0	1.0	0.0	1.0	0.0	0.0	-0.4500000000000004	-0.7794228634059945	0.0	1.0	0.0	0.35331599300882155
-0.5000000000000004	-0.8660254037844384	1.0	0.0	0.0	-1.8369701987210297e-16	-1.0	1.0	0.0	0.0	0.7794228634059945	-0.4500000000000004	0.0	1.0	0.0	-0.8660254037844388	-0.4999999999999998	1.0	0.0	0.0	0.4447151003032263
0.8660254037844387	0.49999999999999994	1.0	0.0	0.0	0.5000000000000001	0.8660254037844386	1.0	0.0	0.0	-0.44999999999999984	0.7794228634059949	0.0	1.0	0.0	1.0	0.0	1.0	0.0	0.0	0.7326011862983912
-0.779422863405995	-0.4499999999999998	0.0	1.0	0.0	-0.4500000000000004	-0.7794228634059945	0.0	1.0	0.0	0.5000000000000001	-0.8660254037844386	1.0	0.0	0.0	-0.9	1.1021821192326179e-16	0.0	1.0	0.0	0.44503163003637797
0.8660254037844384	-0.5000000000000004	1.0	0.0	0.0	1.0	0.0	1.0	0.0	0.0	0.4500000000000001	0.7794228634059948	0.0	1.0	0.0	0.5000000000000001	-0.8660254037844386	1.0	0.0	0.0	0.7329681772933496
-0.5000000000000004	-0.8660254037844384	1.0	0.0	0.0	-1.8369701987210297e-16	-1.0	1.0	0.0	0.0	0.7794228634059945	-0.4500000000000004	0.0	1.0	0.0	-0.8660254037844388	-0.4999999999999998	1.0	0.0	0.0	0.7664882172953682
-0.8660254037844387	0.49999999999999994	1.0	0.0	0.0	-1.0	1.2246467991473532e-16	1.0	0.0	0.0	-0.4500000000000004	-0.7794228634059945	0.0	1.0	0.0	-0.49999999999999983	0.8660254037844387	1.0	0.0	0.0	0.44748129492772576
6.123233995736766e-17	1.0	1.0	0.0	0.0	-0.49999999999999983	0.8660254037844387	1.0	0.0	0.0	-0.9	1.1021821192326179e-16	0.0	1.0	0.0	0.5000000000000001	0.8660254037844386	1.0	0.0	0.0	0.5046951910417498
6.123233995736766e-17	1.0	1.0	0.0	0.0	-0.49999999999999983	0.8660254037844387	1.0	0.0	0.0	-0.9	1.1021821192326179e-16	0.0	1.0	0.0	0.5000000000000001	0.8660254037844386	1.0	0.0	0.0	0.5870709072476133
-0.8660254037844387	0.49999999999999994	1.0	0.0	0.0	-1.0	1.2246467991473532e-16	1.0	0.0	0.0	-0.4500000000000004	-0.7794228634059945	0.0	1.0	0.0	-0.49999999999999983	0.8660254037844387	1.0	0.0	0.0	0.5374537247292295
-0.8660254037844387	0.49999999999999994	1.0	0.0	0.0	-1.0	1.2246467991473532e-16	1.0	0.0	0.0	-0.4500000000000004	-0.7794228634059945	0.0	1.0	0.0	-0.49999999999999983	0.8660254037844387	1.0	0.0	0.0	0.5102596920028074
-0.5000000000000004	-0.8660254037844384	1.0	0.0	0.0	-1.8369701987210297e-16	-1.0	1.0	0.0	0.0	0.7794228634059945	-0.4500000000000004	0.0	1.0	0.0	-0.8660254037844388	-0.4999999999999998	1.0	0.0	0.0	0.5272192633573254
-0.779422863405995	-0.4499999999999998	0.0	1.0	0.0	-0.4500000000000004	-0.7794228634059945	0.0	1.0	0.0	0.5000000000000001	-0.8660254037844386	1.0	0.0	0.0	-0.9	1.1021821192326179e-16	0.0	1.0	0.0	0.49543784319392264
6.123233995736766e-17	1.0	1.0	0.0	0.0	-0.49999999999999983	0.8660254037844387	1.0	0.0	0.0	-0.9	1.1021821192326179e-16	0.0	1.0	0.0	0.5000000000000001	0.8660254037844386	1.0	0.0	0.0	0.6655106450325475
-0.779422863405995	-0.4499999999999998	0.0	1.0	0.0	-0.4500000000000004	-0.7794228634059945	0.0	1.0	0.0	0.5000000000000001	-0.8660254037844386	1.0	0.0	0.0	-0.9	1.1021821192326179e-16	0.0	1.0	0.0	0.3948043249888756
-0.8660254037844387	0.49999999999999994	1.0	0.0	0.0	-1.0	1.2246467991473532e-16	1.0	0.0	0.0	-0.4500000000000004	-0.7794228634059945	0.0	1.0	0.0	-0.49999999999999983	0.8660254037844387	1.0	0.0	0.0	0.6176596066774012
0.8660254037844384	-0.5000000000000004	1.0	0.0	0.0	1.0	0.0	1.0	0.0	0.0	0.4500000000000001	0.7794228634059948	0.0	1.0	0.0	0.5000000000000001	-0.8660254037844386	1.0	0.0	0.0	0.4448343723765878
6.123233995736766e-17	1.0	1.0	0.0	0.0	-0.49999999999999983	0.8660254037844387	1.0	0.0	0.0	-0.9	1.1021821192326179e-16	0.0	1.0	0.0	0.5000000000000001	0.8660254037844386	1.0	0.0	0.0	0.5825936171091202
0.5000000000000001	0.8660254037844386	1.0	0.0	0.0	6.123233995736766e-17	1.0	1.0	0.0	0.0	-0.7794228634059949	0.44999999999999996	0.0	1.0	0.0	0.8660254037844387	0.49999999999999994	1.0	0.0	0.0	0.5063420631316259
0.5000000000000001	-0.8660254037844386	1.0	0.0	0.0	0.8660254037844384	-0.5000000000000004	1.0	0.0	0.0	0.7794228634059949	0.44999999999999996	0.0	1.0	0.0	-1.8369701987210297e-16	-1.0	1.0	0.0	0.0	0.779883388611352
-0.7794228634059949	0.44999999999999996	0.0	1.0	0.0	-0.9	1.1021821192326179e-16	0.0	1.0	0.0	-0.5000000000000004	-0.8660254037844384	1.0	0.0	0.0	-0.44999999999999984	0.7794228634059949	0.0	1.0	0.0	0.3858451573244521
-0.779422863405995	-0.4499999999999998	0.0	1.0	0.0	-0.4500000000000004	-0.7794228634059945	0.0	1.0	0.0	0.5000000000000001	-0.8660254037844386	1.0	0.0	0.0	-0.9	1.1021821192326179e-16	0.0	1.0	0.0	0.5871351306717312
-0.8660254037844387	0.49999999999999994	1.0	0.0	0.0	-1.0	1.2246467991473532e-16	1.0	0.0	0.0	-0.4500000000000004	-0.7794228634059945	0.0	1.0	0.0	-0.49999999999999983	0.8660254037844387	1.0	0.0	0.0	0.5779787053475175
-0.5000000000000004	-0.8660254037844384	1.0	0.0	0.0	-1.8369701987210297e-16	-1.0	1.0	0.0	0.0	0.7794228634059945	-0.4500000000000004	0.0	1.0	0.0	-0.8660254037844388	-0.4999999999999998	1.0	0.0	0.0	0.5276780021010234
0.8660254037844384	-0.5000000000000004	1.0	0.0	0.0	1.0	0.0	1.0	0.0	0.0	0.4500000000000001	0.7794228634059948	0.0	1.0	0.0	0.5000000000000001	-0.8660254037844386	1.0	0.0	0.0	0.6421746051406263
-0.49999999999999983	0.8660254037844387	1.0	0.0	0.0	-0.8660254037844387	0.49999999999999994	1.0	0.0	0.0	-0.779422863405995	-0.4499999999999998	0.0	1.0	0.0	6.123233995736766e-17	1.0	1.0	0.0	0.0	0.5836257792824409
1.0	0.0	1.0	0.0	0.0	0.8660254037844387	0.49999999999999994	1.0	0.0	0.0	5.5109105961630896e-17	0.9	0.0	1.0	0.0	0.8660254037844384	-0.5000000000000004	1.0	0.0	0.0	0.5652991664717026
-0.5000000000000004	-0.8660254037844384	1.0	0.0	0.0	-1.8369701987210297e-16	-1.0	1.0	0.0	0.0	0.7794228634059945	-0.4500000000000004	0.0	1.0	0.0	-0.8660254037844388	-0.4999999999999998	1.0	0.0	0.0	0.5958511668019947
-0.5000000000000004	-0.8660254037844384	1.0	0.0	0.0	-1.8369701987210297e-16	-1.0	1.0	0.0	0.0	0.7794228634059945	-0.4500000000000004	0.0	1.0	0.0	-0.8660254037844388	-0.4999999999999998	1.0	0.0	0.0	0.7980586176366696
5.5109105961630896e-17	0.9	0.0	1.0	0.0	-0.44999999999999984	0.7794228634059949	0.0	1.0	0.0	-1.0	1.2246467991473532e-16	1.0	0.0	0.0	0.4500000000000001	0.7794228634059948	0.0	1.0	0.0	0.6972324291592695
1.0	0.0	1.0	0.0	0.0	0.8660254037844387	0.49999999999999994	1.0	0.0	0.0	5.5109105961630896e-17	0.9	0.0	1.0	0.0	0.8660254037844384	-0.5000000000000004	1.0	0.0	0.0	0.4449352949002014
-0.7794228634059949	0.44999999999999996	0.0	1.0	0.0	-0.9	1.1021821192326179e-16	0.0	1.0	0.0	-0.5000000000000004	-0.8660254037844384	1.0	0.0	0.0	-0.44999999999999984	0.7794228634059949	0.0	1.0	0.0	0.5965438623049787
-0.49999999999999983	0.8660254037844387	1.0	0.0	0.0	-0.8660254037844387	0.49999999999999994	1.0	0.0	0.0	-0.779422863405995	-0.4499999999999998	0.0	1.0	0.0	6.123233995736766e-17	1.0	1.0	0.0	0.0	0.6650427315139755
-0.7794228634059949	0.44999999999999996	0.0	1.0	0.0	-0.9	1.1021821192326179e-16	0.0	1.0	0.0	-0.5000000000000004	-0.8660254037844384	1.0	0.0	0.0	-0.44999999999999984	0.7794228634059949	0.0	1.0	0.0	0.6880989407722408
0.9	0.0	0.0	1.0	0.0	0.7794228634059949	0.44999999999999996	0.0	1.0	0.0	6.123233995736766e-17	1.0	1.0	0.0	0.0	0.7794228634059945	-0.4500000000000004	0.0	1.0	0.0	0.47709288083343654
6.123233995736766e-17	1.0	1.0	0.0	0.0	-0.49999999999999983	0.8660254037844387	1.0	0.0	0.0	-0.9	1.1021821192326179e-16	0.0	1.0	0.0	0.5000000000000001	0.8660254037844386	1.0	0.0	0.0	0.5556381285294212
6.123233995736766e-17	1.0	1.0	0.0	0.0	-0.49999999999999983	0.8660254037844387	1.0	0.0	0.0	-0.9	1.1021821192326179e-16	0.0	1.0	0.0	0.5000000000000001	0.8660254037844386	1.0	0.0	0.0	0.41759446577579606
6.123233995736766e-17	1.0	1.0	0.0	0.0	-0.49999999999999983	0.8660254037844387	1.0	0.0	0.0	-0.9	1.1021821192326179e-16	0.0	1.0	0.0	0.5000000000000001	0.8660254037844386	1.0	0.0	0.0	0.4130850639252439
0.7794228634059945	-0.4500000000000004	0.0	1.0	0.0	0.9	0.0	0.0	1.0	0.0	0.5000000000000001	0.8660254037844386	1.0	0.0	0.0	0.4500000000000001	-0.7794228634059948	0.0	1.0	0.0	0.5870342081481176
0.8660254037844387	0.49999999999999994	1.0	0.0	0.0	0.5000000000000001	0.8660254037844386	1.0	0.0	0.0	-0.44999999999999984	0.7794228634059949	0.0	1.0	0.0	1.0	0.0	1.0	0.0	0.0	0.5737445467431842
-0.8660254037844388	-0.4999999999999998	1.0	0.0	0.0	-0.5000000000000004	-0.8660254037844384	1.0	0.0	0.0	0.4500000000000001	-0.7794228634059948	0.0	1.0	0.0	-1.0	1.2246467991473532e-16	1.0	0.0	0.0	0.41248411617099945
0.5000000000000001	0.8660254037844386	1.0	0.0	0.0	6.123233995736766e-17	1.0	1.0	0.0	0.0	-0.7794228634059949	0.44999999999999996	0.0	1.0	0.0	0.8660254037844387	0.49999999999999994	1.0	0.0	0.0	0.5458257068017193
0.7794228634059945	-0.4500000000000004	0.0	1.0	0.0	0.9	0.0	0.0	1.0	0.0	0.5000000000000001	0.8660254037844386	1.0	0.0	0.0	0.4500000000000001	-0.7794228634059948	0.0	1.0	0.0	0.5047548270784306
-0.5000000000000004	-0.8660254037844384	1.0	0.0	0.0	-1.8369701987210297e-16	-1.0	1.0	0.0	0.0	0.7794228634059945	-0.4500000000000004	0.0	1.0	0.0	-0.8660254037844388	-0.4999999999999998	1.0	0.0	0.0	0.3967769015867773
0.5000000000000001	0.8660254037844386	1.0	0.0	0.0	6.123233995736766e-17	1.0	1.0	0.0	0.0	-0.7794228634059949	0.44999999999999996	0.0	1.0	0.0	0.8660254037844387	0.49999999999999994	1.0	0.0	0.0	0.8108207294863502
0.4500000000000001	-0.7794228634059948	0.0	1.0	0.0	0.7794228634059945	-0.4500000000000004	0.0	1.0	0.0	0.8660254037844387	0.49999999999999994	1.0	0.0	0.0	-1.6532731788489269e-16	-0.9	0.0	1.0	0.0	0.5734463665597805
0.8660254037844384	-0.5000000000000004	1.0	0.0	0.0	1.0	0.0	1.0	0.0	0.0	0.4500000000000001	0.7794228634059948	0.0	1.0	0.0	0.5000000000000001	-0.8660254037844386	1.0	0.0	0.0	0.5240585534132456
1.0	0.0	1.0	0.0	0.0	0.8660254037844387	0.49999999999999994	1.0	0.0	0.0	5.5109105961630896e-17	0.9	0.0	1.0	0.0	0.8660254037844384	-0.5000000000000004	1.0	0.0	0.0	0.6145310084453803
6.123233995736766e-17	1.0	1.0	0.0	0.0	-0.49999999999999983	0.8660254037844387	1.0	0.0	0.0	-0.9	1.1021821192326179e-16	0.0	1.0	0.0	0.5000000000000001	0.8660254037844386	1.0	0.0	0.0	0.4586424085618999
6.123233995736766e-17	1.0	1.0	0.0	0.0	-0.49999999999999983	0.8660254037844387	1.0	0.0	0.0	-0.9	1.1021821192326179e-16	0.0	1.0	0.0	0.5000000000000001	0.8660254037844386	1.0	0.0	0.0	0.4019101881287588
0.8660254037844387	0.49999999999999994	1.0	0.0	0.0	0.5000000000000001	0.8660254037844386	1.0	0.0	0.0	-0.44999999999999984	0.7794228634059949	0.0	1.0	0.0	1.0	0.0	1.0	0.0	0.0	0.6468720898760947
0.8660254037844384	-0.5000000000000004	1.0	0.0	0.0	1.0	0.0	1.0	0.0	0.0	0.4500000000000001	0.7794228634059948	0.0	1.0	0.0	0.5000000000000001	-0.8660254037844386	1.0	0.0	0.0	0.45232098867374043
0.8660254037844387	0.49999999999999994	1.0	0.0	0.0	0.5000000000000001	0.8660254037844386	1.0	0.0	0.0	-0.44999999999999984	0.7794228634059949	0.0	1.0	0.0	1.0	0.0	1.0	0.0	0.0	0.6424269114496604
0.8660254037844387	0.49999999999999994	1.0	0.0	0.0	0.5000000000000001	0.8660254037844386	1.0	0.0	0.0	-0.44999999999999984	0.7794228634059949	0.0	1.0	0.0	1.0	0.0	1.0	0.0	0.0	0.5911353325167783
0.5000000000000001	-0.8660254037844386	1.0	0.0	0.0	0.8660254037844384	-0.5000000000000004	1.0	0.0	0.0	0.7794228634059949	0.44999999999999996	0.0	1.0	0.0	-1.8369701987210297e-16	-1.0	1.0	0.0	0.0	0.5417062328833107
-0.44999999999999984	0.7794228634059949	0.0	1.0	0.0	-0.7794228634059949	0.44999999999999996	0.0	1.0	0.0	-0.8660254037844388	-0.4999999999999998	1.0	0.0	0.0	5.5109105961630896e-17	0.9	0.0	1.0	0.0	0.5476239626770159
-0.44999999999999984	0.7794228634059949	0.0	1.0	0.0	-0.7794228634059949	0.44999999999999996	0.0	1.0	0.0	-0.8660254037844388	-0.4999999999999998	1.0	0.0	0.0	5.5109105961630896e-17	0.9	0.0	1.0	0.0	0.8380193496002092
0.7794228634059945	-0.4500000000000004	0.0	1.0	0.0	0.9	0.0	0.0	1.0	0.0	0.5000000000000001	0.8660254037844386	1.0	0.0	0.0	0.4500000000000001	-0.7794228634059948	0.0	1.0	0.0	0.8030588699429787
5.5109105961630896e-17	0.9	0.0	1.0	0.0	-0.44999999999999984	0.7794228634059949	0.0	1.0	0.0	-1.0	1.2246467991473532e-16	1.0	0.0	0.0	0.4500000000000001	0.7794228634059948	0.0	1.0	0.0	0.7415374170256297
0.8660254037844387	0.49999999999999994	1.0	0.0	0.0	0.5000000000000001	0.8660254037844386	1.0	0.0	0.0	-0.44999999999999984	0.7794228634059949	0.0	1.0	0.0	1.0	0.0	1.0	0.0	0.0	0.6609966557945585
-0.44999999999999984	0.7794228634059949	0.0	1.0	0.0	-0.7794228634059949	0.44999999999999996	0.0	1.0	0.0	-0.8660254037844388	-0.4999999999999998	1.0	0.0	0.0	5.5109105961630896e-17	0.9	0.0	1.0	0.0	0.6424360862245343
-0.8660254037844387	0.49999999999999994	1.0	0.0	0.0	-1.0	1.2246467991473532e-16	1.0	0.0	0.0	-0.4500000000000004	-0.7794228634059945	0.0	1.0	0.0	-0.49999999999999983	0.8660254037844387	1.0	0.0	0.0	0.47695067182289014
0.7794228634059949	0.44999999999999996	0.0	1.0	0.0	0.4500000000000001	0.7794228634059948	0.0	1.0	0.0	-0.49999999999999983	0.8660254037844387	1.0	0.0	0.0	0.9	0.0	0.0	1.0	0.0	0.5731619485386877
-0.8660254037844388	-0.4999999999999998	1.0	0.0	0.0	-0.5000000000000004	-0.8660254037844384	1.0	0.0	0.0	0.4500000000000001	-0.7794228634059948	0.0	1.0	0.0	-1.0	1.2246467991473532e-16	1.0	0.0	0.0	0.4983554216038424
1.0	0.0	1.0	0.0	0.0	0.8660254037844387	0.49999999999999994	1.0	0.0	0.0	5.5109105961630896e-17	0.9	0.0	1.0	0.0	0.8660254037844384	-0.5000000000000004	1.0	0.0	0.0	0.5485001536774791
6.123233995736766e-17	1.0	1.0	0.0	0.0	-0.49999999999999983	0.8660254037844387	1.0	0.0	0.0	-0.9	1.1021821192326179e-16	0.0	1.0	0.0	0.5000000000000001	0.8660254037844386	1.0	0.0	0.0	0.3893086348393726
0.8660254037844384	-0.5000000000000004	1.0	0.0	0.0	1.0	0.0	1.0	0.0	0.0	0.4500000000000001	0.7794228634059948	0.0	1.0	0.0	0.5000000000000001	-0.8660254037844386	1.0	0.0	0.0	0.44180210928074354
-0.9	1.1021821192326179e-16	0.0	1.0	0.0	-0.779422863405995	-0.4499999999999998	0.0	1.0	0.0	-1.8369701987210297e-16	-1.0	1.0	0.0	0.0	-0.7794228634059949	0.44999999999999996	0.0	1.0	0.0	0.36705063099514196
-0.8660254037844388	-0.4999999999999998	1.0	0.0	0.0	-0.5000000000000004	-0.8660254037844384	1.0	0.0	0.0	0.4500000000000001	-0.7794228634059948	0.0	1.0	0.0	-1.0	1.2246467991473532e-16	1.0	0.0	0.0	0.653005426879338
5.5109105961630896e-17	0.9	0.0	1.0	0.0	-0.44999999999999984	0.7794228634059949	0.0	1.0	0.0	-1.0	1.2246467991473532e-16	1.0	0.0	0.0	0.4500000000000001	0.7794228634059948	0.0	1.0	0.0	0.5596566799242163
0.5000000000000001	0.8660254037844386	1.0	0.0	0.0	6.123233995736766e-17	1.0	1.0	0.0	0.0	-0.7794228634059949	0.44999999999999996	0.0	1.0	0.0	0.8660254037844387	0.49999999999999994	1.0	0.0	0.0	0.6481244466463904
1.0	0.0	1.0	0.0	0.0	0.8660254037844387	0.49999999999999994	1.0	0.0	0.0	5.5109105961630896e-17	0.9	0.0	1.0	0.0	0.8660254037844384	-0.5000000000000004	1.0	0.0	0.0	0.4130988260875549
6.123233995736766e-17	1.0	1.0	0.0	0.0	-0.49999999999999983	0.8660254037844387	1.0	0.0	0.0	-0.9	1.1021821192326179e-16	0.0	1.0	0.0	0.5000000000000001	0.8660254037844386	1.0	0.0	0.0	0.6097784750606683
-1.8369701987210297e-16	-1.0	1.0	0.0	0.0	0.5000000000000001	-0.8660254037844386	1.0	0.0	0.0	0.9	0.0	0.0	1.0	0.0	-0.5000000000000004	-0.8660254037844384	1.0	0.0	0.0	0.4125804513071761
6.123233995736766e-17	1.0	1.0	0.0	0.0	-0.49999999999999983	0.8660254037844387	1.0	0.0	0.0	-0.9	1.1021821192326179e-16	0.0	1.0	0.0	0.5000000000000001	0.8660254037844386	1.0	0.0	0.0	0.5786301143635688
-1.8369701987210297e-16	-1.0	1.0	0.0	0.0	0.5000000000000001	-0.8660254037844386	1.0	0.0	0.0	0.9	0.0	0.0	1.0	0.0	-0.5000000000000004	-0.8660254037844384	1.0	0.0	0.0	0.5869837468863108
-0.44999999999999984	0.7794228634059949	0.0	1.0	0.0	-0.7794228634059949	0.44999999999999996	0.0	1.0	0.0	-0.8660254037844388	-0.4999999999999998	1.0	0.0	0.0	5.5109105961630896e-17	0.9	0.0	1.0	0.0	0.4656289996284216
-0.9	1.1021821192326179e-16	0.0	1.0	0.0	-0.779422863405995	-0.4499999999999998	0.0	1.0	0.0	-1.8369701987210297e-16	-1.0	1.0	0.0	0.0	-0.7794228634059949	0.44999999999999996	0.0	1.0	0.0	0.4767625889379739
-0.5000000000000004	-0.8660254037844384	1.0	0.0	0.0	-1.8369701987210297e-16	-1.0	1.0	0.0	0.0	0.7794228634059945	-0.4500000000000004	0.0	1.0	0.0	-0.8660254037844388	-0.4999999999999998	1.0	0.0	0.0	0.6282702338191376
-0.7794228634059949	0.44999999999999996	0.0	1.0	0.0	-0.9	1.1021821192326179e-16	0.0	1.0	0.0	-0.5000000000000004	-0.8660254037844384	1.0	0.0	0.0	-0.44999999999999984	0.7794228634059949	0.0	1.0	0.0	0.4933643440724073
-0.49999999999999983	0.8660254037844387	1.0	0.0	0.0	-0.8660254037844387	0.49999999999999994	1.0	0.0	0.0	-0.779422863405995	-0.4499999999999998	0.0	1.0	0.0	6.123233995736766e-17	1.0	1.0	0.0	0.0	0.8485519911555169
6.123233995736766e-17	1.0	1.0	0.0	0.0	-0.49999999999999983	0.8660254037844387	1.0	0.0	0.0	-0.9	1.1021821192326179e-16	0.0	1.0	0.0	0.5000000000000001	0.8660254037844386	1.0	0.0	0.0	0.5045759189683883
0.8660254037844387	0.49999999999999994	1.0	0.0	0.0	0.5000000000000001	0.8660254037844386	1.0	0.0	0.0	-0.44999999999999984	0.7794228634059949	0.0	1.0	0.0	1.0	0.0	1.0	0.0	0.0	0.4633123689727463
6.123233995736766e-17	1.0	1.0	0.0	0.0	-0.49999999999999983	0.8660254037844387	1.0	0.0	0.0	-0.9	1.1021821192326179e-16	0.0	1.0	0.0	0.5000000000000001	0.8660254037844386	1.0	0.0	0.0	0.7535563721105193
-0.5000000000000004	-0.8660254037844384	1.0	0.0	0.0	-1.8369701987210297e-16	-1.0	1.0	0.0	0.0	0.7794228634059945	-0.4500000000000004	0.0	1.0	0.0	-0.8660254037844388	-0.4999999999999998	1.0	0.0	0.0	0.6423259889260468
6.123233995736766e-17	1.0	1.0	0.0	0.0	-0.49999999999999983	0.8660254037844387	1.0	0.0	0.0	-0.9	1.1021821192326179e-16	0.0	1.0	0.0	0.5000000000000001	0.8660254037844386	1.0	0.0	0.0	0.6311098266426287
0.9	0.0	0.0	1.0	0.0	0.7794228634059949	0.44999999999999996	0.0	1.0	0.0	6.123233995736766e-17	1.0	1.0	0.0	0.0	0.7794228634059945	-0.4500000000000004	0.0	1.0	0.0	0.5870479703104285
-0.779422863405995	-0.4499999999999998	0.0	1.0	0.0	-0.4500000000000004	-0.7794228634059945	0.0	1.0	0.0	0.5000000000000001	-0.8660254037844386	1.0	0.0	0.0	-0.9	1.1021821192326179e-16	0.0	1.0	0.0	0.39903848359320887
-0.8660254037844387	0.49999999999999994	1.0	0.0	0.0	-1.0	1.2246467991473532e-16	1.0	0.0	0.0	-0.4500000000000004	-0.7794228634059945	0.0	1.0	0.0	-0.49999999999999983	0.8660254037844387	1.0	0.0	0.0	0.5822770873759685
1.0	0.0	1.0	0.0	0.0	0.8660254037844387	0.49999999999999994	1.0	0.0	0.0	5.5109105961630896e-17	0.9	0.0	1.0	0.0	0.8660254037844384	-0.5000000000000004	1.0	0.0	0.0	0.4796572304107088
0.8660254037844387	0.49999999999999994	1.0	0.0	0.0	0.5000000000000001	0.8660254037844386	1.0	0.0	0.0	-0.44999999999999984	0.7794228634059949	0.0	1.0	0.0	1.0	0.0	1.0	0.0	0.0	0.5737124350311255
-0.49999999999999983	0.8660254037844387	1.0	0.0	0.0	-0.8660254037844387	0.49999999999999994	1.0	0.0	0.0	-0.779422863405995	-0.4499999999999998	0.0	1.0	0.0	6.123233995736766e-17	1.0	1.0	0.0	0.0	0.7978842969140645
0.5000000000000001	-0.8660254037844386	1.0	0.0	0.0	0.8660254037844384	-0.5000000000000004	1.0	0.0	0.0	0.7794228634059949	0.44999999999999996	0.0	1.0	0.0	-1.8369701987210297e-16	-1.0	1.0	0.0	0.0	0.5733729683607889
0.5000000000000001	-0.8660254037844386	1.0	0.0	0.0	0.8660254037844384	-0.5000000000000004	1.0	0.0	0.0	0.7794228634059949	0.44999999999999996	0.0	1.0	0.0	-1.8369701987210297e-16	-1.0	1.0	0.0	0.0	0.3890242168182798
0.5000000000000001	0.8660254037844386	1.0	0.0	0.0	6.123233995736766e-17	1.0	1.0	0.0	0.0	-0.7794228634059949	0.44999999999999996	0.0	1.0	0.0	0.8660254037844387	0.49999999999999994	1.0	0.0	0.0	0.7524187000261481
-0.5000000000000004	-0.8660254037844384	1.0	0.0	0.0	-1.8369701987210297e-16	-1.0	1.0	0.0	0.0	0.7794228634059945	-0.4500000000000004	0.0	1.0	0.0	-0.8660254037844388	-0.4999999999999998	1.0	0.0	0.0	0.5501653753171032
0.5000000000000001	-0.8660254037844386	1.0	0.0	0.0	0.8660254037844384	-0.5000000000000004	1.0	0.0	0.0	0.7794228634059949	0.44999999999999996	0.0	1.0	0.0	-1.8369701987210297e-16	-1.0	1.0	0.0	0.0	0.659895682809683
0.5000000000000001	-0.8660254037844386	1.0	0.0	0.0	0.8660254037844384	-0.5000000000000004	1.0	0.0	0.0	0.7794228634059949	0.44999999999999996	0.0	1.0	0.0	-1.8369701987210297e-16	-1.0	1.0	0.0	0.0	0.6789333406731533
0.4500000000000001	-0.7794228634059948	0.0	1.0	0.0	0.7794228634059945	-0.4500000000000004	0.0	1.0	0.0	0.8660254037844387	0.49999999999999994	1.0	0.0	0.0	-1.6532731788489269e-16	-0.9	0.0	1.0	0.0	0.41300249095137825
0.8660254037844387	0.49999999999999994	1.0	0.0	0.0	0.5000000000000001	0.8660254037844386	1.0	0.0	0.0	-0.44999999999999984	0.7794228634059949	0.0	1.0	0.0	1.0	0.0	1.0	0.0	0.0	0.5189069173215162
5.5109105961630896e-17	0.9	0.0	1.0	0.0	-0.44999999999999984	0.7794228634059949	0.0	1.0	0.0	-1.0	1.2246467991473532e-16	1.0	0.0	0.0	0.4500000000000001	0.7794228634059948	0.0	1.0	0.0	0.7337893196445692
0.7794228634059945	-0.4500000000000004	0.0	1.0	0.0	0.9	0.0	0.0	1.0	0.0	0.5000000000000001	0.8660254037844386	1.0	0.0	0.0	0.4500000000000001	-0.7794228634059948	0.0	1.0	0.0	0.5276091912894687
0.8660254037844384	-0.5000000000000004	1.0	0.0	0.0	1.0	0.0	1.0	0.0	0.0	0.4500000000000001	0.7794228634059948	0.0	1.0	0.0	0.5000000000000001	-0.8660254037844386	1.0	0.0	0.0	0.43160893439577225
0.7794228634059945	-0.4500000000000004	0.0	1.0	0.0	0.9	0.0	0.0	1.0	0.0	0.5000000000000001	0.8660254037844386	1.0	0.0	0.0	0.4500000000000001	-0.7794228634059948	0.0	1.0	0.0	0.3862763717435283
-0.44999999999999984	0.7794228634059949	0.0	1.0	0.0	-0.7794228634059949	0.44999999999999996	0.0	1.0	0.0	-0.8660254037844388	-0.4999999999999998	1.0	0.0	0.0	5.5109105961630896e-17	0.9	0.0	1.0	0.0	0.6398625618723881
-0.5000000000000004	-0.8660254037844384	1.0	0.0	0.0	-1.8369701987210297e-16	-1.0	1.0	0.0	0.0	0.7794228634059945	-0.4500000000000004	0.0	1.0	0.0	-0.8660254037844388	-0.4999999999999998	1.0	0.0	0.0	0.45844056351467277
-0.779422863405995	-0.4499999999999998	0.0	1.0	0.0	-0.4500000000000004	-0.7794228634059945	0.0	1.0	0.0	0.5000000000000001	-0.8660254037844386	1.0	0.0	0.0	-0.9	1.1021821192326179e-16	0.0	1.0	0.0	0.4938827188527862
0.8660254037844384	-0.5000000000000004	1.0	0.0	0.0	1.0	0.0	1.0	0.0	0.0	0.4500000000000001	0.7794228634059948	0.0	1.0	0.0	0.5000000000000001	-0.8660254037844386	1.0	0.0	0.0	0.8057012051066796
-0.7794228634059949	0.44999999999999996	0.0	1.0	0.0	-0.9	1.1021821192326179e-16	0.0	1.0	0.0	-0.5000000000000004	-0.8660254037844384	1.0	0.0	0.0	-0.44999999999999984	0.7794228634059949	0.0	1.0	0.0	0.569037887232842
-0.7794228634059949	0.44999999999999996	0.0	1.0	0.0	-0.9	1.1021821192326179e-16	0.0	1.0	0.0	-0.5000000000000004	-0.8660254037844384	1.0	0.0	0.0	-0.44999999999999984	0.7794228634059949	0.0	1.0	0.0	0.43588437948703834
-0.7794228634059949	0.44999999999999996	0.0	1.0	0.0	-0.9	1.1021821192326179e-16	0.0	1.0	0.0	-0.5000000000000004	-0.8660254037844384	1.0	0.0	0.0	-0.44999999999999984	0.7794228634059949	0.0	1.0	0.0	0.6421608429783154
1.0	0.0	1.0	0.0	0.0	0.8660254037844387	0.49999999999999994	1.0	0.0	0.0	5.5109105961630896e-17	0.9	0.0	1.0	0.0	0.8660254037844384	-0.5000000000000004	1.0	0.0	0.0	0.6422296537898701
0.4500000000000001	-0.7794228634059948	0.0	1.0	0.0	0.7794228634059945	-0.4500000000000004	0.0	1.0	0.0	0.8660254037844387	0.49999999999999994	1.0	0.0	0.0	-1.6532731788489269e-16	-0.9	0.0	1.0	0.0	0.4959653927491754
-0.779422863405995	-0.4499999999999998	0.0	1.0	0.0	-0.4500000000000004	-0.7794228634059945	0.0	1.0	0.0	0.5000000000000001	-0.8660254037844386	1.0	0.0	0.0	-0.9	1.1021821192326179e-16	0.0	1.0	0.0	0.413057539600622
0.8660254037844384	-0.5000000000000004	1.0	0.0	0.0	1.0	0.0	1.0	0.0	0.0	0.4500000000000001	0.7794228634059948	0.0	1.0	0.0	0.5000000000000001	-0.8660254037844386	1.0	0.0	0.0	0.5278156237241329
1.0	0.0	1.0	0.0	0.0	0.8660254037844387	0.49999999999999994	1.0	0.0	0.0	5.5109105961630896e-17	0.9	0.0	1.0	0.0	0.8660254037844384	-0.5000000000000004	1.0	0.0	0.0	0.36709650486951173
6.123233995736766e-17	1.0	1.0	0.0	0.0	-0.49999999999999983	0.8660254037844387	1.0	0.0	0.0	-0.9	1.1021821192326179e-16	0.0	1.0	0.0	0.5000000000000001	0.8660254037844386	1.0	0.0	0.0	0.6927000903715325
1.0	0.0	1.0	0.0	0.0	0.8660254037844387	0.49999999999999994	1.0	0.0	0.0	5.5109105961630896e-17	0.9	0.0	1.0	0.0	0.8660254037844384	-0.5000000000000004	1.0	0.0	0.0	0.6240452499896784
-0.49999999999999983	0.8660254037844387	1.0	0.0	0.0	-0.8660254037844387	0.49999999999999994	1.0	0.0	0.0	-0.779422863405995	-0.4499999999999998	0.0	1.0	0.0	6.123233995736766e-17	1.0	1.0	0.0	0.0	0.619127570657235
0.4500000000000001	0.7794228634059948	0.0	1.0	0.0	5.5109105961630896e-17	0.9	0.0	1.0	0.0	-0.8660254037844387	0.49999999999999994	1.0	0.0	0.0	0.7794228634059949	0.44999999999999996	0.0	1.0	0.0	0.7368858061645313
-0.5000000000000004	-0.8660254037844384	1.0	0.0	0.0	-1.8369701987210297e-16	-1.0	1.0	0.0	0.0	0.7794228634059945	-0.4500000000000004	0.0	1.0	0.0	-0.8660254037844388	-0.4999999999999998	1.0	0.0	0.0	0.8167889205418621
-1.0	1.2246467991473532e-16	1.0	0.0	0.0	-0.8660254037844388	-0.4999999999999998	1.0	0.0	0.0	-1.6532731788489269e-16	-0.9	0.0	1.0	0.0	-0.8660254037844387	0.49999999999999994	1.0	0.0	0.0	0.5779328314731478
0.5000000000000001	0.8660254037844386	1.0	0.0	0.0	6.123233995736766e-17	1.0	1.0	0.0	0.0	-0.7794228634059949	0.44999999999999996	0.0	1.0	0.0	0.8660254037844387	0.49999999999999994	1.0	0.0	0.0	0.5139112524026441
-0.5000000000000004	-0.8660254037844384	1.0	0.0	0.0	-1.8369701987210297e-16	-1.0	1.0	0.0	0.0	0.7794228634059945	-0.4500000000000004	0.0	1.0	0.0	-0.8660254037844388	-0.4999999999999998	1.0	0.0	0.0	0.5733729683607889
1.0	0.0	1.0	0.0	0.0	0.8660254037844387	0.49999999999999994	1.0	0.0	0.0	5.5109105961630896e-17	0.9	0.0	1.0	0.0	0.8660254037844384	-0.5000000000000004	1.0	0.0	0.0	0.41283734500364694
0.8660254037844387	0.49999999999999994	1.0	0.0	0.0	0.5000000000000001	0.8660254037844386	1.0	0.0	0.0	-0.44999999999999984	0.7794228634059949	0.0	1.0	0.0	1.0	0.0	1.0	0.0	0.0	0.7805760841143361
0.8660254037844387	0.49999999999999994	1.0	0.0	0.0	0.5000000000000001	0.8660254037844386	1.0	0.0	0.0	-0.44999999999999984	0.7794228634059949	0.0	1.0	0.0	1.0	0.0	1.0	0.0	0.0	0.751941611732702
-0.4500000000000004	-0.7794228634059945	0.0	1.0	0.0	-1.6532731788489269e-16	-0.9	0.0	1.0	0.0	0.8660254037844384	-0.5000000000000004	1.0	0.0	0.0	-0.779422863405995	-0.4499999999999998	0.0	1.0	0.0	0.4140942891613797
-0.5000000000000004	-0.8660254037844384	1.0	0.0	0.0	-1.8369701987210297e-16	-1.0	1.0	0.0	0.0	0.7794228634059945	-0.4500000000000004	0.0	1.0	0.0	-0.8660254037844388	-0.4999999999999998	1.0	0.0	0.0	0.5964842262682979
1.0	0.0	1.0	0.0	0.0	0.8660254037844387	0.49999999999999994	1.0	0.0	0.0	5.5109105961630896e-17	0.9	0.0	1.0	0.0	0.8660254037844384	-0.5000000000000004	1.0	0.0	0.0	0.5927133937950998
-0.5000000000000004	-0.8660254037844384	1.0	0.0	0.0	-1.8369701987210297e-16	-1.0	1.0	0.0	0.0	0.7794228634059945	-0.4500000000000004	0.0	1.0	0.0	-0.8660254037844388	-0.4999999999999998	1.0	0.0	0.0	0.8168669061282909
-0.9	1.1021821192326179e-16	0.0	1.0	0.0	-0.779422863405995	-0.4499999999999998	0.0	1.0	0.0	-1.8369701987210297e-16	-1.0	1.0	0.0	0.0	-0.7794228634059949	0.44999999999999996	0.0	1.0	0.0	0.5868002513888315
6.123233995736766e-17	1.0	1.0	0.0	0.0	-0.49999999999999983	0.8660254037844387	1.0	0.0	0.0	-0.9	1.1021821192326179e-16	0.0	1.0	0.0	0.5000000000000001	0.8660254037844386	1.0	0.0	0.0	0.6855208290326577
0.8660254037844387	0.49999999999999994	1.0	0.0	0.0	0.5000000000000001	0.8660254037844386	1.0	0.0	0.0	-0.44999999999999984	0.7794228634059949	0.0	1.0	0.0	1.0	0.0	1.0	0.0	0.0	0.5480093032217221
1.0	0.0	1.0	0.0	0.0	0.8660254037844387	0.49999999999999994	1.0	0.0	0.0	5.5109105961630896e-17	0.9	0.0	1.0	0.0	0.8660254037844384	-0.5000000000000004	1.0	0.0	0.0	0.7296560835638495
-1.0	1.2246467991473532e-16	1.0	0.0	0.0	-0.8660254037844388	-0.4999999999999998	1.0	0.0	0.0	-1.6532731788489269e-16	-0.9	0.0	1.0	0.0	-0.8660254037844387	0.49999999999999994	1.0	0.0	0.0	0.7561023721380437
1.0	0.0	1.0	0.0	0.0	0.8660254037844387	0.49999999999999994	1.0	0.0	0.0	5.5109105961630896e-17	0.9	0.0	1.0	0.0	0.8660254037844384	-0.5000000000000004	1.0	0.0	0.0	0.5963420172577516
0.4500000000000001	0.7794228634059948	0.0	1.0	0.0	5.5109105961630896e-17	0.9	0.0	1.0	0.0	-0.8660254037844387	0.49999999999999994	1.0	0.0	0.0	0.7794228634059949	0.44999999999999996	0.0	1.0	0.0	0.5445137139947428
0.5000000000000001	0.8660254037844386	1.0	0.0	0.0	6.123233995736766e-17	1.0	1.0	0.0	0.0	-0.7794228634059949	0.44999999999999996	0.0	1.0	0.0	0.8660254037844387	0.49999999999999994	1.0	0.0	0.0	0.35948144172412366
0.8660254037844387	0.49999999999999994	1.0	0.0	0.0	0.5000000000000001	0.8660254037844386	1.0	0.0	0.0	-0.44999999999999984	0.7794228634059949	0.0	1.0	0.0	1.0	0.0	1.0	0.0	0.0	0.5995898875631339
-0.7794228634059949	0.44999999999999996	0.0	1.0	0.0	-0.9	1.1021821192326179e-16	0.0	1.0	0.0	-0.5000000000000004	-0.8660254037844384	1.0	0.0	0.0	-0.44999999999999984	0.7794228634059949	0.0	1.0	0.0	0.3027767456156044
0.5000000000000001	0.8660254037844386	1.0	0.0	0.0	6.123233995736766e-17	1.0	1.0	0.0	0.0	-0.7794228634059949	0.44999999999999996	0.0	1.0	0.0	0.8660254037844387	0.49999999999999994	1.0	0.0	0.0	0.632719999633009
-1.8369701987210297e-16	-1.0	1.0	0.0	0.0	0.5000000000000001	-0.8660254037844386	1.0	0.0	0.0	0.9	0.0	0.0	1.0	0.0	-0.5000000000000004	-0.8660254037844384	1.0	0.0	0.0	0.6342751239741454
6.123233995736766e-17	1.0	1.0	0.0	0.0	-0.49999999999999983	0.8660254037844387	1.0	0.0	0.0	-0.9	1.1021821192326179e-16	0.0	1.0	0.0	0.5000000000000001	0.8660254037844386	1.0	0.0	0.0	0.596704420865273
-0.8660254037844387	0.49999999999999994	1.0	0.0	0.0	-1.0	1.2246467991473532e-16	1.0	0.0	0.0	-0.4500000000000004	-0.7794228634059945	0.0	1.0	0.0	-0.49999999999999983	0.8660254037844387	1.0	0.0	0.0	0.5688773286725477
-0.44999999999999984	0.7794228634059949	0.0	1.0	0.0	-0.7794228634059949	0.44999999999999996	0.0	1.0	0.0	-0.8660254037844388	-0.4999999999999998	1.0	0.0	0.0	5.5109105961630896e-17	0.9	0.0	1.0	0.0	0.6236232103454762
0.4500000000000001	0.7794228634059948	0.0	1.0	0.0	5.5109105961630896e-17	0.9	0.0	1.0	0.0	-0.8660254037844387	0.49999999999999994	1.0	0.0	0.0	0.7794228634059949	0.44999999999999996	0.0	1.0	0.0	0.5827220639573556
-1.0	1.2246467991473532e-16	1.0	0.0	0.0	-0.8660254037844388	-0.4999999999999998	1.0	0.0	0.0	-1.6532731788489269e-16	-0.9	0.0	1.0	0.0	-0.8660254037844387	0.49999999999999994	1.0	0.0	0.0	0.684020753340765
0.5000000000000001	0.8660254037844386	1.0	0.0	0.0	6.123233995736766e-17	1.0	1.0	0.0	0.0	-0.7794228634059949	0.44999999999999996	0.0	1.0	0.0	0.8660254037844387	0.49999999999999994	1.0	0.0	0.0	0.550688337484919
-0.49999999999999983	0.8660254037844387	1.0	0.0	0.0	-0.8660254037844387	0.49999999999999994	1.0	0.0	0.0	-0.779422863405995	-0.4499999999999998	0.0	1.0	0.0	6.123233995736766e-17	1.0	1.0	0.0	0.0	0.752212267591484
0.5000000000000001	0.8660254037844386	1.0	0.0	0.0	6.123233995736766e-17	1.0	1.0	0.0	0.0	-0.7794228634059949	0.44999999999999996	0.0	1.0	0.0	0.8660254037844387	0.49999999999999994	1.0	0.0	0.0	0.6649555711526728
0.8660254037844384	-0.5000000000000004	1.0	0.0	0.0	1.0	0.0	1.0	0.0	0.0	0.4500000000000001	0.7794228634059948	0.0	1.0	0.0	0.5000000000000001	-0.8660254037844386	1.0	0.0	0.0	0.560216341191528
6.123233995736766e-17	1.0	1.0	0.0	0.0	-0.49999999999999983	0.8660254037844387	1.0	0.0	0.0	-0.9	1.1021821192326179e-16	0.0	1.0	0.0	0.5000000000000001	0.8660254037844386	1.0	0.0	0.0	0.5918509649569473
0.9	0.0	0.0	1.0	0.0	0.7794228634059949	0.44999999999999996	0.0	1.0	0.0	6.123233995736766e-17	1.0	1.0	0.0	0.0	0.7794228634059945	-0.4500000000000004	0.0	1.0	0.0	0.5913601145011904
-1.0	1.2246467991473532e-16	1.0	0.0	0.0	-0.8660254037844388	-0.4999999999999998	1.0	0.0	0.0	-1.6532731788489269e-16	-0.9	0.0	1.0	0.0	-0.8660254037844387	0.49999999999999994	1.0	0.0	0.0	0.824977407116873
0.8660254037844387	0.49999999999999994	1.0	0.0	0.0	0.5000000000000001	0.8660254037844386	1.0	0.0	0.0	-0.44999999999999984	0.7794228634059949	0.0	1.0	0.0	1.0	0.0	1.0	0.0	0.0	0.6336191275706573
0.8660254037844387	0.49999999999999994	1.0	0.0	0.0	0.5000000000000001	0.8660254037844386	1.0	0.0	0.0	-0.44999999999999984	0.7794228634059949	0.0	1.0	0.0	1.0	0.0	1.0	0.0	0.0	0.6237241328690897
0.5000000000000001	-0.8660254037844386	1.0	0.0	0.0	0.8660254037844384	-0.5000000000000004	1.0	0.0	0.0	0.7794228634059949	0.44999999999999996	0.0	1.0	0.0	-1.8369701987210297e-16	-1.0	1.0	0.0	0.0	0.41508516484776753
-0.49999999999999983	0.8660254037844387	1.0	0.0	0.0	-0.8660254037844387	0.49999999999999994	1.0	0.0	0.0	-0.779422863405995	-0.4499999999999998	0.0	1.0	0.0	6.123233995736766e-17	1.0	1.0	0.0	0.0	0.698076508447674
0.7794228634059945	-0.4500000000000004	0.0	1.0	0.0	0.9	0.0	0.0	1.0	0.0	0.5000000000000001	0.8660254037844386	1.0	0.0	0.0	0.4500000000000001	-0.7794228634059948	0.0	1.0	0.0	0.5551656276234122
-0.8660254037844388	-0.4999999999999998	1.0	0.0	0.0	-0.5000000000000004	-0.8660254037844384	1.0	0.0	0.0	0.4500000000000001	-0.7794228634059948	0.0	1.0	0.0	-1.0	1.2246467991473532e-16	1.0	0.0	0.0	0.9356527164214707
-0.49999999999999983	0.8660254037844387	1.0	0.0	0.0	-0.8660254037844387	0.49999999999999994	1.0	0.0	0.0	-0.779422863405995	-0.4499999999999998	0.0	1.0	0.0	6.123233995736766e-17	1.0	1.0	0.0	0.0	0.5997504461234282
-1.0	1.2246467991473532e-16	1.0	0.0	0.0	-0.8660254037844388	-0.4999999999999998	1.0	0.0	0.0	-1.6532731788489269e-16	-0.9	0.0	1.0	0.0	-0.8660254037844387	0.49999999999999994	1.0	0.0	0.0	0.4494171724261316
1.0	0.0	1.0	0.0	0.0	0.8660254037844387	0.49999999999999994	1.0	0.0	0.0	5.5109105961630896e-17	0.9	0.0	1.0	0.0	0.8660254037844384	-0.5000000000000004	1.0	0.0	0.0	0.5594410727146782
-0.4500000000000004	-0.7794228634059945	0.0	1.0	0.0	-1.6532731788489269e-16	-0.9	0.0	1.0	0.0	0.8660254037844384	-0.5000000000000004	1.0	0.0	0.0	-0.779422863405995	-0.4499999999999998	0.0	1.0	0.0	0.3326268756680383
-0.49999999999999983	0.8660254037844387	1.0	0.0	0.0	-0.8660254037844387	0.49999999999999994	1.0	0.0	0.0	-0.779422863405995	-0.4499999999999998	0.0	1.0	0.0	6.123233995736766e-17	1.0	1.0	0.0	0.0	0.7213620870777883
1.0	0.0	1.0	0.0	0.0	0.8660254037844387	0.49999999999999994	1.0	0.0	0.0	5.5109105961630896e-17	0.9	0.0	1.0	0.0	0.8660254037844384	-0.5000000000000004	1.0	0.0	0.0	0.6423993871250384
0.7794228634059945	-0.4500000000000004	0.0	1.0	0.0	0.9	0.0	0.0	1.0	0.0	0.5000000000000001	0.8660254037844386	1.0	0.0	0.0	0.4500000000000001	-0.7794228634059948	0.0	1.0	0.0	0.6793049190555486
-0.8660254037844387	0.49999999999999994	1.0	0.0	0.0	-1.0	1.2246467991473532e-16	1.0	0.0	0.0	-0.4500000000000004	-0.7794228634059945	0.0	1.0	0.0	-0.49999999999999983	0.8660254037844387	1.0	0.0	0.0	0.8543504488758608
-1.0	1.2246467991473532e-16	1.0	0.0	0.0	-0.8660254037844388	-0.4999999999999998	1.0	0.0	0.0	-1.6532731788489269e-16	-0.9	0.0	1.0	0.0	-0.8660254037844387	0.49999999999999994	1.0	0.0	0.0	0.5962823812210708
6.123233995736766e-17	1.0	1.0	0.0	0.0	-0.49999999999999983	0.8660254037844387	1.0	0.0	0.0	-0.9	1.1021821192326179e-16	0.0	1.0	0.0	0.5000000000000001	0.8660254037844386	1.0	0.0	0.0	0.6468766772635316
0.5000000000000001	0.8660254037844386	1.0	0.0	0.0	6.123233995736766e-17	1.0	1.0	0.0	0.0	-0.7794228634059949	0.44999999999999996	0.0	1.0	0.0	0.8660254037844387	0.49999999999999994	1.0	0.0	0.0	0.5865020712054277
-0.9	1.1021821192326179e-16	0.0	1.0	0.0	-0.779422863405995	-0.4499999999999998	0.0	1.0	0.0	-1.8369701987210297e-16	-1.0	1.0	0.0	0.0	-0.7794228634059949	0.44999999999999996	0.0	1.0	0.0	0.4585690103629082
0.8660254037844387	0.49999999999999994	1.0	0.0	0.0	0.5000000000000001	0.8660254037844386	1.0	0.0	0.0	-0.44999999999999984	0.7794228634059949	0.0	1.0	0.0	1.0	0.0	1.0	0.0	0.0	0.5320130832289702
0.7794228634059945	-0.4500000000000004	0.0	1.0	0.0	0.9	0.0	0.0	1.0	0.0	0.5000000000000001	0.8660254037844386	1.0	0.0	0.0	0.4500000000000001	-0.7794228634059948	0.0	1.0	0.0	0.7246512438701036
0.5000000000000001	0.8660254037844386	1.0	0.0	0.0	6.123233995736766e-17	1.0	1.0	0.0	0.0	-0.7794228634059949	0.44999999999999996	0.0	1.0	0.0	0.8660254037844387	0.49999999999999994	1.0	0.0	0.0	0.6561477872736697
-0.8660254037844388	-0.4999999999999998	1.0	0.0	0.0	-0.5000000000000004	-0.8660254037844384	1.0	0.0	0.0	0.4500000000000001	-0.7794228634059948	0.0	1.0	0.0	-1.0	1.2246467991473532e-16	1.0	0.0	0.0	0.6739422631417181
0.9	0.0	0.0	1.0	0.0	0.7794228634059949	0.44999999999999996	0.0	1.0	0.0	6.123233995736766e-17	1.0	1.0	0.0	0.0	0.7794228634059945	-0.4500000000000004	0.0	1.0	0.0	0.4678768194725422
0.4500000000000001	-0.7794228634059948	0.0	1.0	0.0	0.7794228634059945	-0.4500000000000004	0.0	1.0	0.0	0.8660254037844387	0.49999999999999994	1.0	0.0	0.0	-1.6532731788489269e-16	-0.9	0.0	1.0	0.0	0.5595374078508548
-0.779422863405995	-0.4499999999999998	0.0	1.0	0.0	-0.4500000000000004	-0.7794228634059945	0.0	1.0	0.0	0.5000000000000001	-0.8660254037844386	1.0	0.0	0.0	-0.9	1.1021821192326179e-16	0.0	1.0	0.0	0.5932547055126635
0.5000000000000001	0.8660254037844386	1.0	0.0	0.0	6.123233995736766e-17	1.0	1.0	0.0	0.0	-0.7794228634059949	0.44999999999999996	0.0	1.0	0.0	0.8660254037844387	0.49999999999999994	1.0	0.0	0.0	0.5872865144571514
-0.5000000000000004	-0.8660254037844384	1.0	0.0	0.0	-1.8369701987210297e-16	-1.0	1.0	0.0	0.0	0.7794228634059945	-0.4500000000000004	0.0	1.0	0.0	-0.8660254037844388	-0.4999999999999998	1.0	0.0	0.0	0.49550665400547733
0.7794228634059949	0.44999999999999996	0.0	1.0	0.0	0.4500000000000001	0.7794228634059948	0.0	1.0	0.0	-0.49999999999999983	0.8660254037844387	1.0	0.0	0.0	0.9	0.0	0.0	1.0	0.0	0.642252590727055
0.8660254037844387	0.49999999999999994	1.0	0.0	0.0	0.5000000000000001	0.8660254037844386	1.0	0.0	0.0	-0.44999999999999984	0.7794228634059949	0.0	1.0	0.0	1.0	0.0	1.0	0.0	0.0	0.6285317149030456
-0.779422863405995	-0.4499999999999998	0.0	1.0	0.0	-0.4500000000000004	-0.7794228634059945	0.0	1.0	0.0	0.5000000000000001	-0.8660254037844386	1.0	0.0	0.0	-0.9	1.1021821192326179e-16	0.0	1.0	0.0	0.5872498153576557
0.8660254037844387	0.49999999999999994	1.0	0.0	0.0	0.5000000000000001	0.8660254037844386	1.0	0.0	0.0	-0.44999999999999984	0.7794228634059949	0.0	1.0	0.0	1.0	0.0	1.0	0.0	0.0	0.8070315474634041
1.0	0.0	1.0	0.0	0.0	0.8660254037844387	0.49999999999999994	1.0	0.0	0.0	5.5109105961630896e-17	0.9	0.0	1.0	0.0	0.8660254037844384	-0.5000000000000004	1.0	0.0	0.0	0.38288170504016256
-0.5000000000000004	-0.8660254037844384	1.0	0.0	0.0	-1.8369701987210297e-16	-1.0	1.0	0.0	0.0	0.7794228634059945	-0.4500000000000004	0.0	1.0	0.0	-0.8660254037844388	-0.4999999999999998	1.0	0.0	0.0	0.5598906366835024
-1.6532731788489269e-16	-0.9	0.0	1.0	0.0	0.4500000000000001	-0.7794228634059948	0.0	1.0	0.0	1.0	0.0	1.0	0.0	0.0	-0.4500000000000004	-0.7794228634059945	0.0	1.0	0.0	0.6330778158530934
-0.49999999999999983	0.8660254037844387	1.0	0.0	0.0	-0.8660254037844387	0.49999999999999994	1.0	0.0	0.0	-0.779422863405995	-0.4499999999999998	0.0	1.0	0.0	6.123233995736766e-17	1.0	1.0	0.0	0.0	0.4703952951754446
0.4500000000000001	0.7794228634059948	0.0	1.0	0.0	5.5109105961630896e-17	0.9	0.0	1.0	0.0	-0.8660254037844387	0.49999999999999994	1.0	0.0	0.0	0.7794228634059949	0.44999999999999996	0.0	1.0	0.0	0.5871076063471092
0.8660254037844387	0.49999999999999994	1.0	0.0	0.0	0.5000000000000001	0.8660254037844386	1.0	0.0	0.0	-0.44999999999999984	0.7794228634059949	0.0	1.0	0.0	1.0	0.0	1.0	0.0	0.0	0.44068278674612016
1.0	0.0	1.0	0.0	0.0	0.8660254037844387	0.49999999999999994	1.0	0.0	0.0	5.5109105961630896e-17	0.9	0.0	1.0	0.0	0.8660254037844384	-0.5000000000000004	1.0	0.0	0.0	0.5033602612975884
0.7794228634059949	0.44999999999999996	0.0	1.0	0.0	0.4500000000000001	0.7794228634059948	0.0	1.0	0.0	-0.49999999999999983	0.8660254037844387	1.0	0.0	0.0	0.9	0.0	0.0	1.0	0.0	0.40814444765561564
-0.779422863405995	-0.4499999999999998	0.0	1.0	0.0	-0.4500000000000004	-0.7794228634059945	0.0	1.0	0.0	0.5000000000000001	-0.8660254037844386	1.0	0.0	0.0	-0.9	1.1021821192326179e-16	0.0	1.0	0.0	0.4954974792306034
6.123233995736766e-17	1.0	1.0	0.0	0.0	-0.49999999999999983	0.8660254037844387	1.0	0.0	0.0	-0.9	1.1021821192326179e-16	0.0	1.0	0.0	0.5000000000000001	0.8660254037844386	1.0	0.0	0.0	0.5875296459913114
-0.8660254037844388	-0.4999999999999998	1.0	0.0	0.0	-0.5000000000000004	-0.8660254037844384	1.0	0.0	0.0	0.4500000000000001	-0.7794228634059948	0.0	1.0	0.0	-1.0	1.2246467991473532e-16	1.0	0.0	0.0	0.48174907908197206
0.8660254037844387	0.49999999999999994	1.0	0.0	0.0	0.5000000000000001	0.8660254037844386	1.0	0.0	0.0	-0.44999999999999984	0.7794228634059949	0.0	1.0	0.0	1.0	0.0	1.0	0.0	0.0	0.3566097371885737
-0.5000000000000004	-0.8660254037844384	1.0	0.0	0.0	-1.8369701987210297e-16	-1.0	1.0	0.0	0.0	0.7794228634059945	-0.4500000000000004	0.0	1.0	0.0	-0.8660254037844388	-0.4999999999999998	1.0	0.0	0.0	0.5738684062039827
0.4500000000000001	0.7794228634059948	0.0	1.0	0.0	5.5109105961630896e-17	0.9	0.0	1.0	0.0	-0.8660254037844387	0.49999999999999994	1.0	0.0	0.0	0.7794228634059949	0.44999999999999996	0.0	1.0	0.0	0.656326695383712
-1.0	1.2246467991473532e-16	1.0	0.0	0.0	-0.8660254037844388	-0.4999999999999998	1.0	0.0	0.0	-1.6532731788489269e-16	-0.9	0.0	1.0	0.0	-0.8660254037844387	0.49999999999999994	1.0	0.0	0.0	0.4129153305900756
1.0	0.0	1.0	0.0	0.0	0.8660254037844387	0.49999999999999994	1.0	0.0	0.0	5.5109105961630896e-17	0.9	0.0	1.0	0.0	0.8660254037844384	-0.5000000000000004	1.0	0.0	0.0	0.6424360862245343
0.5000000000000001	-0.8660254037844386	1.0	0.0	0.0	0.8660254037844384	-0.5000000000000004	1.0	0.0	0.0	0.7794228634059949	0.44999999999999996	0.0	1.0	0.0	-1.8369701987210297e-16	-1.0	1.0	0.0	0.0	0.6575423530545118
-0.779422863405995	-0.4499999999999998	0.0	1.0	0.0	-0.4500000000000004	-0.7794228634059945	0.0	1.0	0.0	0.5000000000000001	-0.8660254037844386	1.0	0.0	0.0	-0.9	1.1021821192326179e-16	0.0	1.0	0.0	0.603851570492089
0.5000000000000001	0.8660254037844386	1.0	0.0	0.0	6.123233995736766e-17	1.0	1.0	0.0	0.0	-0.7794228634059949	0.44999999999999996	0.0	1.0	0.0	0.8660254037844387	0.49999999999999994	1.0	0.0	0.0	0.8021138681309607
1.0	0.0	1.0	0.0	0.0	0.8660254037844387	0.49999999999999994	1.0	0.0	0.0	5.5109105961630896e-17	0.9	0.0	1.0	0.0	0.8660254037844384	-0.5000000000000004	1.0	0.0	0.0	0.7337434457701995
1.0	0.0	1.0	0.0	0.0	0.8660254037844387	0.49999999999999994	1.0	0.0	0.0	5.5109105961630896e-17	0.9	0.0	1.0	0.0	0.8660254037844384	-0.5000000000000004	1.0	0.0	0.0	0.550197487029162
-0.8660254037844388	-0.4999999999999998	1.0	0.0	0.0	-0.5000000000000004	-0.8660254037844384	1.0	0.0	0.0	0.4500000000000001	-0.7794228634059948	0.0	1.0	0.0	-1.0	1.2246467991473532e-16	1.0	0.0	0.0	0.7974576698824252
0.4500000000000001	-0.7794228634059948	0.0	1.0	0.0	0.7794228634059945	-0.4500000000000004	0.0	1.0	0.0	0.8660254037844387	0.49999999999999994	1.0	0.0	0.0	-1.6532731788489269e-16	-0.9	0.0	1.0	0.0	0.8027882140841969
-0.779422863405995	-0.4499999999999998	0.0	1.0	0.0	-0.4500000000000004	-0.7794228634059945	0.0	1.0	0.0	0.5000000000000001	-0.8660254037844386	1.0	0.0	0.0	-0.9	1.1021821192326179e-16	0.0	1.0	0.0	0.6515099385748822
-0.779422863405995	-0.4499999999999998	0.0	1.0	0.0	-0.4500000000000004	-0.7794228634059945	0.0	1.0	0.0	0.5000000000000001	-0.8660254037844386	1.0	0.0	0.0	-0.9	1.1021821192326179e-16	0.0	1.0	0.0	0.42219102798765074
0.5000000000000001	-0.8660254037844386	1.0	0.0	0.0	0.8660254037844384	-0.5000000000000004	1.0	0.0	0.0	0.7794228634059949	0.44999999999999996	0.0	1.0	0.0	-1.8369701987210297e-16	-1.0	1.0	0.0	0.0	0.8304868594286868
0.8660254037844387	0.49999999999999994	1.0	0.0	0.0	0.5000000000000001	0.8660254037844386	1.0	0.0	0.0	-0.44999999999999984	0.7794228634059949	0.0	1.0	0.0	1.0	0.0	1.0	0.0	0.0	0.571895829606081
-0.9	1.1021821192326179e-16	0.0	1.0	0.0	-0.779422863405995	-0.4499999999999998	0.0	1.0	0.0	-1.8369701987210297e-16	-1.0	1.0	0.0	0.0	-0.7794228634059949	0.44999999999999996	0.0	1.0	0.0	0.5873278009440843
-0.5000000000000004	-0.8660254037844384	1.0	0.0	0.0	-1.8369701987210297e-16	-1.0	1.0	0.0	0.0	0.7794228634059945	-0.4500000000000004	0.0	1.0	0.0	-0.8660254037844388	-0.4999999999999998	1.0	0.0	0.0	0.4587616806352614
0.5000000000000001	-0.8660254037844386	1.0	0.0	0.0	0.8660254037844384	-0.5000000000000004	1.0	0.0	0.0	0.7794228634059949	0.44999999999999996	0.0	1.0	0.0	-1.8369701987210297e-16	-1.0	1.0	0.0	0.0	0.7983659725949475
-0.5000000000000004	-0.8660254037844384	1.0	0.0	0.0	-1.8369701987210297e-16	-1.0	1.0	0.0	0.0	0.7794228634059945	-0.4500000000000004	0.0	1.0	0.0	-0.8660254037844388	-0.4999999999999998	1.0	0.0	0.0	0.6196872319245467
1.0	0.0	1.0	0.0	0.0	0.8660254037844387	0.49999999999999994	1.0	0.0	0.0	5.5109105961630896e-17	0.9	0.0	1.0	0.0	0.8660254037844384	-0.5000000000000004	1.0	0.0	0.0	0.5369766364357835
-0.8660254037844387	0.49999999999999994	1.0	0.0	0.0	-1.0	1.2246467991473532e-16	1.0	0.0	0.0	-0.4500000000000004	-0.7794228634059945	0.0	1.0	0.0	-0.49999999999999983	0.8660254037844387	1.0	0.0	0.0	0.4795104340127254
0.8660254037844384	-0.5000000000000004	1.0	0.0	0.0	1.0	0.0	1.0	0.0	0.0	0.4500000000000001	0.7794228634059948	0.0	1.0	0.0	1.0	0.0	1.0	0.0	0.0	0.47258347898288444
0.8660254037844387	0.49999999999999994	1.0	0.0	0.0	0.5000000000000001	0.8660254037844386	1.0	0.0	0.0	-0.44999999999999984	0.7794228634059949	0.0	1.0	0.0	0.5000000000000001	0.8660254037844386	1.0	0.0	0.0	0.5553949969952612
0.8660254037844387	0.49999999999999994	1.0	0.0	0.0	0.5000000000000001	0.8660254037844386	1.0	0.0	0.0	-0.44999999999999984	0.7794228634059949	0.0	1.0	0.0	0.5000000000000001	0.8660254037844386	1.0	0.0	0.0	0.3944419213813541
0.7794228634059945	-0.4500000000000004	0.0	1.0	0.0	0.9	0.0	0.0	1.0	0.0	0.5000000000000001	0.8660254037844386	1.0	0.0	0.0	0.9	0.0	0.0	1.0	0.0	0.3624127822963544
-0.44999999999999984	0.7794228634059949	0.0	1.0	0.0	-0.7794228634059949	0.44999999999999996	0.0	1.0	0.0	-0.8660254037844388	-0.4999999999999998	1.0	0.0	0.0	-0.7794228634059949	0.44999999999999996	0.0	1.0	0.0	0.5871076063471092
1.0	0.0	1.0	0.0	0.0	0.8660254037844387	0.49999999999999994	1.0	0.0	0.0	5.5109105961630896e-17	0.9	0.0	1.0	0.0	0.8660254037844387	0.49999999999999994	1.0	0.0	0.0	0.5868598874255123
0.5000000000000001	-0.8660254037844386	1.0	0.0	0.0	0.8660254037844384	-0.5000000000000004	1.0	0.0	0.0	0.7794228634059949	0.44999999999999996	0.0	1.0	0.0	0.8660254037844384	-0.5000000000000004	1.0	0.0	0.0	0.6642491134873778
0.8660254037844387	0.49999999999999994	1.0	0.0	0.0	0.5000000000000001	0.8660254037844386	1.0	0.0	0.0	-0.44999999999999984	0.7794228634059949	0.0	1.0	0.0	0.5000000000000001	0.8660254037844386	1.0	0.0	0.0	0.467684149200189
-0.49999999999999983	0.8660254037844387	1.0	0.0	0.0	-0.8660254037844387	0.49999999999999994	1.0	0.0	0.0	-0.779422863405995	-0.4499999999999998	0.0	1.0	0.0	-0.8660254037844387	0.49999999999999994	1.0	0.0	0.0	0.36412846519778524
-0.779422863405995	-0.4499999999999998	0.0	1.0	0.0	-0.4500000000000004	-0.7794228634059945	0.0	1.0	0.0	0.5000000000000001	-0.8660254037844386	1.0	0.0	0.0	-0.4500000000000004	-0.7794228634059945	0.0	1.0	0.0	0.45852313648853843
-0.49999999999999983	0.8660254037844387	1.0	0.0	0.0	-0.8660254037844387	0.49999999999999994	1.0	0.0	0.0	-0.779422863405995	-0.4499999999999998	0.0	1.0	0.0	-0.8660254037844387	0.49999999999999994	1.0	0.0	0.0	0.5986724100757377
-0.779422863405995	-0.4499999999999998	0.0	1.0	0.0	-0.4500000000000004	-0.7794228634059945	0.0	1.0	0.0	0.5000000000000001	-0.8660254037844386	1.0	0.0	0.0	-0.4500000000000004	-0.7794228634059945	0.0	1.0	0.0	0.8709200922982352
0.8660254037844387	0.49999999999999994	1.0	0.0	0.0	0.5000000000000001	0.8660254037844386	1.0	0.0	0.0	-0.44999999999999984	0.7794228634059949	0.0	1.0	0.0	0.5000000000000001	0.8660254037844386	1.0	0.0	0.0	0.5870066838234956
0.7794228634059949	0.44999999999999996	0.0	1.0	0.0	0.4500000000000001	0.7794228634059948	0.0	1.0	0.0	-0.49999999999999983	0.8660254037844387	1.0	0.0	0.0	0.4500000000000001	0.7794228634059948	0.0	1.0	0.0	0.5873186261692104
0.4500000000000001	0.7794228634059948	0.0	1.0	0.0	5.5109105961630896e-17	0.9	0.0	1.0	0.0	-0.8660254037844387	0.49999999999999994	1.0	0.0	0.0	5.5109105961630896e-17	0.9	0.0	1.0	0.0	0.587662680226984
0.5000000000000001	0.8660254037844386	1.0	0.0	0.0	6.123233995736766e-17	1.0	1.0	0.0	0.0	-0.7794228634059949	0.44999999999999996	0.0	1.0	0.0	6.123233995736766e-17	1.0	1.0	0.0	0.0	0.5642165430365752
0.8660254037844387	0.49999999999999994	1.0	0.0	0.0	0.5000000000000001	0.8660254037844386	1.0	0.0	0.0	-0.44999999999999984	0.7794228634059949	0.0	1.0	0.0	0.5000000000000001	0.8660254037844386	1.0	0.0	0.0	0.7527535793090477
1.0	0.0	1.0	0.0	0.0	0.8660254037844387	0.49999999999999994	1.0	0.0	0.0	5.5109105961630896e-17	0.9	0.0	1.0	0.0	0.8660254037844387	0.49999999999999994	1.0	0.0	0.0	0.33669588832464026
0.8660254037844387	0.49999999999999994	1.0	0.0	0.0	0.5000000000000001	0.8660254037844386	1.0	0.0	0.0	-0.44999999999999984	0.7794228634059949	0.0	1.0	0.0	0.5000000000000001	0.8660254037844386	1.0	0.0	0.0	0.522540128171605
-0.779422863405995	-0.4499999999999998	0.0	1.0	0.0	-0.4500000000000004	-0.7794228634059945	0.0	1.0	0.0	0.5000000000000001	-0.8660254037844386	1.0	0.0	0.0	-0.4500000000000004	-0.7794228634059945	0.0	1.0	0.0	0.507264128006459
-0.8660254037844387	0.49999999999999994	1.0	0.0	0.0	-1.0	1.2246467991473532e-16	1.0	0.0	0.0	-0.4500000000000004	-0.7794228634059945	0.0	1.0	0.0	-1.0	1.2246467991473532e-16	1.0	0.0	0.0	0.6608406846217011
-0.5000000000000004	-0.8660254037844384	1.0	0.0	0.0	-1.8369701987210297e-16	-1.0	1.0	0.0	0.0	0.7794228634059945	-0.4500000000000004	0.0	1.0	0.0	-1.8369701987210297e-16	-1.0	1.0	0.0	0.0	0.5254210074820289
0.8660254037844384	-0.5000000000000004	1.0	0.0	0.0	1.0	0.0	1.0	0.0	0.0	0.4500000000000001	0.7794228634059948	0.0	1.0	0.0	1.0	0.0	1.0	0.0	0.0	0.47273486276830484
-0.8660254037844387	0.49999999999999994	1.0	0.0	0.0	-1.0	1.2246467991473532e-16	1.0	0.0	0.0	-0.4500000000000004	-0.7794228634059945	0.0	1.0	0.0	-1.0	1.2246467991473532e-16	1.0	0.0	0.0	0.5873002766194625
-0.7794228634059949	0.44999999999999996	0.0	1.0	0.0	-0.9	1.1021821192326179e-16	0.0	1.0	0.0	-0.5000000000000004	-0.8660254037844384	1.0	0.0	0.0	-0.9	1.1021821192326179e-16	0.0	1.0	0.0	0.5689323773217915
-1.0	1.2246467991473532e-16	1.0	0.0	0.0	-0.8660254037844388	-0.4999999999999998	1.0	0.0	0.0	-1.6532731788489269e-16	-0.9	0.0	1.0	0.0	-0.8660254037844388	-0.4999999999999998	1.0	0.0	0.0	0.5779328314731478
-1.0	1.2246467991473532e-16	1.0	0.0	0.0	-0.8660254037844388	-0.4999999999999998	1.0	0.0	0.0	-1.6532731788489269e-16	-0.9	0.0	1.0	0.0	-0.8660254037844388	-0.4999999999999998	1.0	0.0	0.0	0.6650427315139755
-0.8660254037844387	0.49999999999999994	1.0	0.0	0.0	-1.0	1.2246467991473532e-16	1.0	0.0	0.0	-0.4500000000000004	-0.7794228634059945	0.0	1.0	0.0	-1.0	1.2246467991473532e-16	1.0	0.0	0.0	0.7344223791108726
0.5000000000000001	0.8660254037844386	1.0	0.0	0.0	6.123233995736766e-17	1.0	1.0	0.0	0.0	-0.7794228634059949	0.44999999999999996	0.0	1.0	0.0	6.123233995736766e-17	1.0	1.0	0.0	0.0	0.5203152452646693
-1.6532731788489269e-16	-0.9	0.0	1.0	0.0	0.4500000000000001	-0.7794228634059948	0.0	1.0	0.0	1.0	0.0	1.0	0.0	0.0	0.4500000000000001	-0.7794228634059948	0.0	1.0	0.0	0.5505415410869355
0.8660254037844387	0.49999999999999994	1.0	0.0	0.0	0.5000000000000001	0.8660254037844386	1.0	0.0	0.0	-0.44999999999999984	0.7794228634059949	0.0	1.0	0.0	0.5000000000000001	0.8660254037844386	1.0	0.0	0.0	0.7155315176453858
0.5000000000000001	0.8660254037844386	1.0	0.0	0.0	6.123233995736766e-17	1.0	1.0	0.0	0.0	-0.7794228634059949	0.44999999999999996	0.0	1.0	0.0	6.123233995736766e-17	1.0	1.0	0.0	0.0	0.49230465757446473
-0.44999999999999984	0.7794228634059949	0.0	1.0	0.0	-0.7794228634059949	0.44999999999999996	0.0	1.0	0.0	-0.8660254037844388	-0.4999999999999998	1.0	0.0	0.0	-0.7794228634059949	0.44999999999999996	0.0	1.0	0.0	0.47714334209524334
-0.49999999999999983	0.8660254037844387	1.0	0.0	0.0	-0.8660254037844387	0.49999999999999994	1.0	0.0	0.0	-0.779422863405995	-0.4499999999999998	0.0	1.0	0.0	-0.8660254037844387	0.49999999999999994	1.0	0.0	0.0	0.678277344269665
0.8660254037844387	0.49999999999999994	1.0	0.0	0.0	0.5000000000000001	0.8660254037844386	1.0	0.0	0.0	-0.44999999999999984	0.7794228634059949	0.0	1.0	0.0	0.5000000000000001	0.8660254037844386	1.0	0.0	0.0	0.49089174224387466
0.9	0.0	0.0	1.0	0.0	0.7794228634059949	0.44999999999999996	0.0	1.0	0.0	6.123233995736766e-17	1.0	1.0	0.0	0.0	0.7794228634059949	0.44999999999999996	0.0	1.0	0.0	0.8207065494130438
6.123233995736766e-17	1.0	1.0	0.0	0.0	-0.49999999999999983	0.8660254037844387	1.0	0.0	0.0	-0.9	1.1021821192326179e-16	0.0	1.0	0.0	-0.49999999999999983	0.8660254037844387	1.0	0.0	0.0	0.6155218841317681
0.7794228634059945	-0.4500000000000004	0.0	1.0	0.0	0.9	0.0	0.0	1.0	0.0	0.5000000000000001	0.8660254037844386	1.0	0.0	0.0	0.9	0.0	0.0	1.0	0.0	0.4589038896458078
-0.8660254037844388	-0.4999999999999998	1.0	0.0	0.0	-0.5000000000000004	-0.8660254037844384	1.0	0.0	0.0	0.4500000000000001	-0.7794228634059948	0.0	1.0	0.0	-0.5000000000000004	-0.8660254037844384	1.0	0.0	0.0	0.5875021216666896
-0.44999999999999984	0.7794228634059949	0.0	1.0	0.0	-0.7794228634059949	0.44999999999999996	0.0	1.0	0.0	-0.8660254037844388	-0.4999999999999998	1.0	0.0	0.0	-0.7794228634059949	0.44999999999999996	0.0	1.0	0.0	0.7478129630394194
-0.9	1.1021821192326179e-16	0.0	1.0	0.0	-0.779422863405995	-0.4499999999999998	0.0	1.0	0.0	-1.8369701987210297e-16	-1.0	1.0	0.0	0.0	-0.779422863405995	-0.4499999999999998	0.0	1.0	0.0	0.43576969480111377
-1.8369701987210297e-16	-1.0	1.0	0.0	0.0	0.5000000000000001	-0.8660254037844386	1.0	0.0	0.0	0.9	0.0	0.0	1.0	0.0	0.5000000000000001	-0.8660254037844386	1.0	0.0	0.0	0.7159214455775291
-0.9	1.1021821192326179e-16	0.0	1.0	0.0	-0.779422863405995	-0.4499999999999998	0.0	1.0	0.0	-1.8369701987210297e-16	-1.0	1.0	0.0	0.0	-0.779422863405995	-0.4499999999999998	0.0	1.0	0.0	0.435008188486575
0.5000000000000001	0.8660254037844386	1.0	0.0	0.0	6.123233995736766e-17	1.0	1.0	0.0	0.0	-0.7794228634059949	0.44999999999999996	0.0	1.0	0.0	6.123233995736766e-17	1.0	1.0	0.0	0.0	0.7336838097335187
0.8660254037844384	-0.5000000000000004	1.0	0.0	0.0	1.0	0.0	1.0	0.0	0.0	0.4500000000000001	0.7794228634059948	0.0	1.0	0.0	0.8660254037844384	-0.5000000000000004	1.0	0.0	0.0	0.3688305373206905
0.5000000000000001	-0.8660254037844386	1.0	0.0	0.0	0.8660254037844384	-0.5000000000000004	1.0	0.0	0.0	0.7794228634059949	0.44999999999999996	0.0	1.0	0.0	0.5000000000000001	-0.8660254037844386	1.0	0.0	0.0	0.8598277894756157
1.0	0.0	1.0	0.0	0.0	0.8660254037844387	0.49999999999999994	1.0	0.0	0.0	5.5109105961630896e-17	0.9	0.0	1.0	0.0	1.0	0.0	1.0	0.0	0.0	0.5939795127277064
0.8660254037844387	0.49999999999999994	1.0	0.0	0.0	0.5000000000000001	0.8660254037844386	1.0	0.0	0.0	-0.44999999999999984	0.7794228634059949	0.0	1.0	0.0	0.8660254037844387	0.49999999999999994	1.0	0.0	0.0	0.5780016422847024
-0.779422863405995	-0.4499999999999998	0.0	1.0	0.0	-0.4500000000000004	-0.7794228634059945	0.0	1.0	0.0	0.5000000000000001	-0.8660254037844386	1.0	0.0	0.0	-0.779422863405995	-0.4499999999999998	0.0	1.0	0.0	0.6426516934340724
-0.8660254037844388	-0.4999999999999998	1.0	0.0	0.0	-0.5000000000000004	-0.8660254037844384	1.0	0.0	0.0	0.4500000000000001	-0.7794228634059948	0.0	1.0	0.0	-0.8660254037844388	-0.4999999999999998	1.0	0.0	0.0	0.44039836872502736
0.4500000000000001	-0.7794228634059948	0.0	1.0	0.0	0.7794228634059945	-0.4500000000000004	0.0	1.0	0.0	0.8660254037844387	0.49999999999999994	1.0	0.0	0.0	0.4500000000000001	-0.7794228634059948	0.0	1.0	0.0	0.44477473633990705
-0.4500000000000004	-0.7794228634059945	0.0	1.0	0.0	-1.6532731788489269e-16	-0.9	0.0	1.0	0.0	0.8660254037844384	-0.5000000000000004	1.0	0.0	0.0	-0.4500000000000004	-0.7794228634059945	0.0	1.0	0.0	0.8186926863282092
0.5000000000000001	0.8660254037844386	1.0	0.0	0.0	6.123233995736766e-17	1.0	1.0	0.0	0.0	-0.7794228634059949	0.44999999999999996	0.0	1.0	0.0	0.5000000000000001	0.8660254037844386	1.0	0.0	0.0	0.8357669423686516
5.5109105961630896e-17	0.9	0.0	1.0	0.0	-0.44999999999999984	0.7794228634059949	0.0	1.0	0.0	-1.0	1.2246467991473532e-16	1.0	0.0	0.0	5.5109105961630896e-17	0.9	0.0	1.0	0.0	0.5870709072476133
0.8660254037844384	-0.5000000000000004	1.0	0.0	0.0	1.0	0.0	1.0	0.0	0.0	0.4500000000000001	0.7794228634059948	0.0	1.0	0.0	0.8660254037844384	-0.5000000000000004	1.0	0.0	0.0	0.7161049410750084
-0.44999999999999984	0.7794228634059949	0.0	1.0	0.0	-0.7794228634059949	0.44999999999999996	0.0	1.0	0.0	-0.8660254037844388	-0.4999999999999998	1.0	0.0	0.0	-0.44999999999999984	0.7794228634059949	0.0	1.0	0.0	0.5165306506291601
0.8660254037844384	-0.5000000000000004	1.0	0.0	0.0	1.0	0.0	1.0	0.0	0.0	0.4500000000000001	0.7794228634059948	0.0	1.0	0.0	0.8660254037844384	-0.5000000000000004	1.0	0.0	0.0	0.44493070751276437
-0.8660254037844387	0.49999999999999994	1.0	0.0	0.0	-1.0	1.2246467991473532e-16	1.0	0.0	0.0	-0.4500000000000004	-0.7794228634059945	0.0	1.0	0.0	-0.8660254037844387	0.49999999999999994	1.0	0.0	0.0	0.40898393955658313
0.7794228634059945	-0.4500000000000004	0.0	1.0	0.0	0.9	0.0	0.0	1.0	0.0	0.5000000000000001	0.8660254037844386	1.0	0.0	0.0	0.7794228634059945	-0.4500000000000004	0.0	1.0	0.0	0.6836354127960586
5.5109105961630896e-17	0.9	0.0	1.0	0.0	-0.44999999999999984	0.7794228634059949	0.0	1.0	0.0	-1.0	1.2246467991473532e-16	1.0	0.0	0.0	5.5109105961630896e-17	0.9	0.0	1.0	0.0	0.5331094688264086
0.8660254037844384	-0.5000000000000004	1.0	0.0	0.0	1.0	0.0	1.0	0.0	0.0	0.4500000000000001	0.7794228634059948	0.0	1.0	0.0	0.8660254037844384	-0.5000000000000004	1.0	0.0	0.0	0.582391772061893
0.8660254037844384	-0.5000000000000004	1.0	0.0	0.0	1.0	0.0	1.0	0.0	0.0	0.4500000000000001	0.7794228634059948	0.0	1.0	0.0	0.8660254037844384	-0.5000000000000004	1.0	0.0	0.0	0.5879516856355137
0.5000000000000001	-0.8660254037844386	1.0	0.0	0.0	0.8660254037844384	-0.5000000000000004	1.0	0.0	0.0	0.7794228634059949	0.44999999999999996	0.0	1.0	0.0	0.5000000000000001	-0.8660254037844386	1.0	0.0	0.0	0.5186454362376083
-0.8660254037844387	0.49999999999999994	1.0	0.0	0.0	-1.0	1.2246467991473532e-16	1.0	0.0	0.0	-0.4500000000000004	-0.7794228634059945	0.0	1.0	0.0	-0.8660254037844387	0.49999999999999994	1.0	0.0	0.0	0.4588121418970682
-1.0	1.2246467991473532e-16	1.0	0.0	0.0	-0.8660254037844388	-0.4999999999999998	1.0	0.0	0.0	-1.6532731788489269e-16	-0.9	0.0	1.0	0.0	-1.0	1.2246467991473532e-16	1.0	0.0	0.0	0.552105840202946
0.8660254037844387	0.49999999999999994	1.0	0.0	0.0	0.5000000000000001	0.8660254037844386	1.0	0.0	0.0	-0.44999999999999984	0.7794228634059949	0.0	1.0	0.0	0.8660254037844387	0.49999999999999994	1.0	0.0	0.0	0.3268513548848795
-0.8660254037844387	0.49999999999999994	1.0	0.0	0.0	-1.0	1.2246467991473532e-16	1.0	0.0	0.0	-0.4500000000000004	-0.7794228634059945	0.0	1.0	0.0	-0.8660254037844387	0.49999999999999994	1.0	0.0	0.0	0.6616801765226685
0.5000000000000001	-0.8660254037844386	1.0	0.0	0.0	0.8660254037844384	-0.5000000000000004	1.0	0.0	0.0	0.7794228634059949	0.44999999999999996	0.0	1.0	0.0	0.5000000000000001	-0.8660254037844386	1.0	0.0	0.0	0.9178995270403553
0.5000000000000001	0.8660254037844386	1.0	0.0	0.0	6.123233995736766e-17	1.0	1.0	0.0	0.0	-0.7794228634059949	0.44999999999999996	0.0	1.0	0.0	0.5000000000000001	0.8660254037844386	1.0	0.0	0.0	0.4689273311956108
1.0	0.0	1.0	0.0	0.0	0.8660254037844387	0.49999999999999994	1.0	0.0	0.0	5.5109105961630896e-17	0.9	0.0	1.0	0.0	1.0	0.0	1.0	0.0	0.0	0.7066640977297018
1.0	0.0	1.0	0.0	0.0	0.8660254037844387	0.49999999999999994	1.0	0.0	0.0	0.8660254037844384	-0.5000000000000004	1.0	0.0	0.0	1.0	0.0	1.0	0.0	0.0	0.6816811857479046
-0.8660254037844387	0.49999999999999994	1.0	0.0	0.0	-1.0	1.2246467991473532e-16	1.0	0.0	0.0	-0.49999999999999983	0.8660254037844387	1.0	0.0	0.0	-0.8660254037844387	0.49999999999999994	1.0	0.0	0.0	0.802531320387726
-0.8660254037844388	-0.4999999999999998	1.0	0.0	0.0	-0.5000000000000004	-0.8660254037844384	1.0	0.0	0.0	-1.0	1.2246467991473532e-16	1.0	0.0	0.0	-0.8660254037844388	-0.4999999999999998	1.0	0.0	0.0	0.6019890911926749
0.5000000000000001	0.8660254037844386	1.0	0.0	0.0	6.123233995736766e-17	1.0	1.0	0.0	0.0	0.8660254037844387	0.49999999999999994	1.0	0.0	0.0	0.5000000000000001	0.8660254037844386	1.0	0.0	0.0	0.82089463229796
0.5000000000000001	0.8660254037844386	1.0	0.0	0.0	6.123233995736766e-17	1.0	1.0	0.0	0.0	0.8660254037844387	0.49999999999999994	1.0	0.0	0.0	0.5000000000000001	0.8660254037844386	1.0	0.0	0.0	0.5978191560124594
0.8660254037844387	0.49999999999999994	1.0	0.0	0.0	0.5000000000000001	0.8660254037844386	1.0	0.0	0.0	1.0	0.0	1.0	0.0	0.0	0.8660254037844387	0.49999999999999994	1.0	0.0	0.0	0.552812297868241
1.0	0.0	1.0	0.0	0.0	0.8660254037844387	0.49999999999999994	1.0	0.0	0.0	0.8660254037844384	-0.5000000000000004	1.0	0.0	0.0	1.0	0.0	1.0	0.0	0.0	0.49515342517282984
0.5000000000000001	-0.8660254037844386	1.0	0.0	0.0	0.8660254037844384	-0.5000000000000004	1.0	0.0	0.0	-1.8369701987210297e-16	-1.0	1.0	0.0	0.0	0.5000000000000001	-0.8660254037844386	1.0	0.0	0.0	0.5965163379803567
-0.8660254037844387	0.49999999999999994	1.0	0.0	0.0	-1.0	1.2246467991473532e-16	1.0	0.0	0.0	-0.49999999999999983	0.8660254037844387	1.0	0.0	0.0	-0.8660254037844387	0.49999999999999994	1.0	0.0	0.0	0.5684094151539756
-0.49999999999999983	0.8660254037844387	1.0	0.0	0.0	-0.8660254037844387	0.49999999999999994	1.0	0.0	0.0	6.123233995736766e-17	1.0	1.0	0.0	0.0	-0.49999999999999983	0.8660254037844387	1.0	0.0	0.0	0.5269486074985434
0.8660254037844384	-0.5000000000000004	1.0	0.0	0.0	1.0	0.0	1.0	0.0	0.0	0.5000000000000001	-0.8660254037844386	1.0	0.0	0.0	0.8660254037844384	-0.5000000000000004	1.0	0.0	0.0	0.6790526127465147
0.8660254037844384	-0.5000000000000004	1.0	0.0	0.0	1.0	0.0	1.0	0.0	0.0	0.5000000000000001	-0.8660254037844386	1.0	0.0	0.0	0.8660254037844384	-0.5000000000000004	1.0	0.0	0.0	0.43141626412341905
0.8660254037844384	-0.5000000000000004	1.0	0.0	0.0	1.0	0.0	1.0	0.0	0.0	0.5000000000000001	-0.8660254037844386	1.0	0.0	0.0	0.8660254037844384	-0.5000000000000004	1.0	0.0	0.0	0.4544311868947516
5.5109105961630896e-17	0.9	0.0	1.0	0.0	-0.44999999999999984	0.7794228634059949	0.0	1.0	0.0	0.4500000000000001	0.7794228634059948	0.0	1.0	0.0	5.5109105961630896e-17	0.9	0.0	1.0	0.0	0.5062182036708274
-0.49999999999999983	0.8660254037844387	1.0	0.0	0.0	-0.8660254037844387	0.49999999999999994	1.0	0.0	0.0	6.123233995736766e-17	1.0	1.0	0.0	0.0	-0.49999999999999983	0.8660254037844387	1.0	0.0	0.0	0.5569180096243388
1.0	0.0	1.0	0.0	0.0	0.8660254037844387	0.49999999999999994	1.0	0.0	0.0	0.8660254037844384	-0.5000000000000004	1.0	0.0	0.0	1.0	0.0	1.0	0.0	0.0	0.5246595011674902
0.5000000000000001	0.8660254037844386	1.0	0.0	0.0	6.123233995736766e-17	1.0	1.0	0.0	0.0	0.8660254037844387	0.49999999999999994	1.0	0.0	0.0	0.5000000000000001	0.8660254037844386	1.0	0.0	0.0	0.8027606897595749
-0.49999999999999983	0.8660254037844387	1.0	0.0	0.0	-0.8660254037844387	0.49999999999999994	1.0	0.0	0.0	6.123233995736766e-17	1.0	1.0	0.0	0.0	-0.49999999999999983	0.8660254037844387	1.0	0.0	0.0	0.49975916215955846
-1.0	1.2246467991473532e-16	1.0	0.0	0.0	-0.8660254037844388	-0.4999999999999998	1.0	0.0	0.0	-0.8660254037844387	0.49999999999999994	1.0	0.0	0.0	-1.0	1.2246467991473532e-16	1.0	0.0	0.0	0.623659909444972
0.5000000000000001	0.8660254037844386	1.0	0.0	0.0	6.123233995736766e-17	1.0	1.0	0.0	0.0	0.8660254037844387	0.49999999999999994	1.0	0.0	0.0	0.5000000000000001	0.8660254037844386	1.0	0.0	0.0	0.47534967360738384
-0.8660254037844388	-0.4999999999999998	1.0	0.0	0.0	-0.5000000000000004	-0.8660254037844384	1.0	0.0	0.0	-1.0	1.2246467991473532e-16	1.0	0.0	0.0	-0.8660254037844388	-0.4999999999999998	1.0	0.0	0.0	0.6979021877250686
0.8660254037844384	-0.5000000000000004	1.0	0.0	0.0	1.0	0.0	1.0	0.0	0.0	0.5000000000000001	-0.8660254037844386	1.0	0.0	0.0	0.8660254037844384	-0.5000000000000004	1.0	0.0	0.0	0.6405231456633134
1.0	0.0	1.0	0.0	0.0	0.8660254037844387	0.49999999999999994	1.0	0.0	0.0	0.8660254037844384	-0.5000000000000004	1.0	0.0	0.0	1.0	0.0	1.0	0.0	0.0	0.6422388285647441
6.123233995736766e-17	1.0	1.0	0.0	0.0	-0.49999999999999983	0.8660254037844387	1.0	0.0	0.0	0.5000000000000001	0.8660254037844386	1.0	0.0	0.0	6.123233995736766e-17	1.0	1.0	0.0	0.0	0.6978012652014551
-0.49999999999999983	0.8660254037844387	1.0	0.0	0.0	-0.8660254037844387	0.49999999999999994	1.0	0.0	0.0	6.123233995736766e-17	1.0	1.0	0.0	0.0	-0.49999999999999983	0.8660254037844387	1.0	0.0	0.0	0.5342792526228387
-0.49999999999999983	0.8660254037844387	1.0	0.0	0.0	-0.8660254037844387	0.49999999999999994	1.0	0.0	0.0	6.123233995736766e-17	1.0	1.0	0.0	0.0	-0.49999999999999983	0.8660254037844387	1.0	0.0	0.0	1.0
0.7794228634059945	-0.4500000000000004	0.0	1.0	0.0	0.9	0.0	0.0	1.0	0.0	0.4500000000000001	-0.7794228634059948	0.0	1.0	0.0	0.7794228634059945	-0.4500000000000004	0.0	1.0	0.0	0.4266407938015221
0.5000000000000001	0.8660254037844386	1.0	0.0	0.0	6.123233995736766e-17	1.0	1.0	0.0	0.0	0.8660254037844387	0.49999999999999994	1.0	0.0	0.0	0.5000000000000001	0.8660254037844386	1.0	0.0	0.0	0.6309171563702755
0.5000000000000001	0.8660254037844386	1.0	0.0	0.0	6.123233995736766e-17	1.0	1.0	0.0	0.0	0.8660254037844387	0.49999999999999994	1.0	0.0	0.0	0.5000000000000001	0.8660254037844386	1.0	0.0	0.0	0.37655569776456604
-0.8660254037844388	-0.4999999999999998	1.0	0.0	0.0	-0.5000000000000004	-0.8660254037844384	1.0	0.0	0.0	-1.0	1.2246467991473532e-16	1.0	0.0	0.0	-0.8660254037844388	-0.4999999999999998	1.0	0.0	0.0	0.8075866213432787
-1.8369701987210297e-16	-1.0	1.0	0.0	0.0	0.5000000000000001	-0.8660254037844386	1.0	0.0	0.0	-0.5000000000000004	-0.8660254037844384	1.0	0.0	0.0	-1.8369701987210297e-16	-1.0	1.0	0.0	0.0	0.48641903949281845
0.8660254037844387	0.49999999999999994	1.0	0.0	0.0	0.5000000000000001	0.8660254037844386	1.0	0.0	0.0	1.0	0.0	1.0	0.0	0.0	0.8660254037844387	0.49999999999999994	1.0	0.0	0.0	0.3889095321323553
1.0	0.0	1.0	0.0	0.0	0.8660254037844387	0.49999999999999994	1.0	0.0	0.0	0.8660254037844384	-0.5000000000000004	1.0	0.0	0.0	1.0	0.0	1.0	0.0	0.0	0.5635192601461542
-0.49999999999999983	0.8660254037844387	1.0	0.0	0.0	-0.8660254037844387	0.49999999999999994	1.0	0.0	0.0	6.123233995736766e-17	1.0	1.0	0.0	0.0	-0.49999999999999983	0.8660254037844387	1.0	0.0	0.0	0.6925395318112382
-0.49999999999999983	0.8660254037844387	1.0	0.0	0.0	-0.8660254037844387	0.49999999999999994	1.0	0.0	0.0	6.123233995736766e-17	1.0	1.0	0.0	0.0	-0.49999999999999983	0.8660254037844387	1.0	0.0	0.0	0.5230952020514796
6.123233995736766e-17	1.0	1.0	0.0	0.0	-0.49999999999999983	0.8660254037844387	1.0	0.0	0.0	0.5000000000000001	0.8660254037844386	1.0	0.0	0.0	6.123233995736766e-17	1.0	1.0	0.0	0.0	0.6794654776158431
0.8660254037844387	0.49999999999999994	1.0	0.0	0.0	0.5000000000000001	0.8660254037844386	1.0	0.0	0.0	1.0	0.0	1.0	0.0	0.0	0.8660254037844387	0.49999999999999994	1.0	0.0	0.0	0.5627990403185482
6.123233995736766e-17	1.0	1.0	0.0	0.0	-0.49999999999999983	0.8660254037844387	1.0	0.0	0.0	0.5000000000000001	0.8660254037844386	1.0	0.0	0.0	6.123233995736766e-17	1.0	1.0	0.0	0.0	0.5845937180316438
0.8660254037844387	0.49999999999999994	1.0	0.0	0.0	0.5000000000000001	0.8660254037844386	1.0	0.0	0.0	1.0	0.0	1.0	0.0	0.0	0.8660254037844387	0.49999999999999994	1.0	0.0	0.0	0.8350513099284826
0.5000000000000001	0.8660254037844386	1.0	0.0	0.0	6.123233995736766e-17	1.0	1.0	0.0	0.0	0.8660254037844387	0.49999999999999994	1.0	0.0	0.0	0.5000000000000001	0.8660254037844386	1.0	0.0	0.0	0.7428998710944129
0.8660254037844387	0.49999999999999994	1.0	0.0	0.0	0.5000000000000001	0.8660254037844386	1.0	0.0	0.0	1.0	0.0	1.0	0.0	0.0	0.8660254037844387	0.49999999999999994	1.0	0.0	0.0	0.47759749345150443
0.8660254037844387	0.49999999999999994	1.0	0.0	0.0	0.5000000000000001	0.8660254037844386	1.0	0.0	0.0	1.0	0.0	1.0	0.0	0.0	0.8660254037844387	0.49999999999999994	1.0	0.0	0.0	0.44863731656184486
-0.5000000000000004	-0.8660254037844384	1.0	0.0	0.0	-1.8369701987210297e-16	-1.0	1.0	0.0	0.0	-0.8660254037844388	-0.4999999999999998	1.0	0.0	0.0	-0.5000000000000004	-0.8660254037844384	1.0	0.0	0.0	0.4980847657450605
6.123233995736766e-17	1.0	1.0	0.0	0.0	-0.49999999999999983	0.8660254037844387	1.0	0.0	0.0	0.5000000000000001	0.8660254037844386	1.0	0.0	0.0	6.123233995736766e-17	1.0	1.0	0.0	0.0	0.60527824798499
1.0	0.0	1.0	0.0	0.0	0.8660254037844387	0.49999999999999994	1.0	0.0	0.0	0.8660254037844384	-0.5000000000000004	1.0	0.0	0.0	1.0	0.0	1.0	0.0	0.0	0.8262022395625468
-0.49999999999999983	0.8660254037844387	1.0	0.0	0.0	-0.8660254037844387	0.49999999999999994	1.0	0.0	0.0	6.123233995736766e-17	1.0	1.0	0.0	0.0	-0.49999999999999983	0.8660254037844387	1.0	0.0	0.0	0.3796108977975953
1.0	0.0	1.0	0.0	0.0	0.8660254037844387	0.49999999999999994	1.0	0.0	0.0	0.8660254037844384	-0.5000000000000004	1.0	0.0	0.0	1.0	0.0	1.0	0.0	0.0	0.6140172210524384
-0.7794228634059949	0.44999999999999996	0.0	1.0	0.0	-0.9	1.1021821192326179e-16	0.0	1.0	0.0	-0.44999999999999984	0.7794228634059949	0.0	1.0	0.0	-0.7794228634059949	0.44999999999999996	0.0	1.0	0.0	0.5428255554179339
1.0	0.0	1.0	0.0	0.0	0.8660254037844387	0.49999999999999994	1.0	0.0	0.0	0.8660254037844384	-0.5000000000000004	1.0	0.0	0.0	1.0	0.0	1.0	0.0	0.0	0.3189105872314658
-0.8660254037844387	0.49999999999999994	1.0	0.0	0.0	-1.0	1.2246467991473532e-16	1.0	0.0	0.0	-0.49999999999999983	0.8660254037844387	1.0	0.0	0.0	-0.8660254037844387	0.49999999999999994	1.0	0.0	0.0	0.4267050172256398
6.123233995736766e-17	1.0	1.0	0.0	0.0	-0.49999999999999983	0.8660254037844387	1.0	0.0	0.0	0.5000000000000001	0.8660254037844386	1.0	0.0	0.0	6.123233995736766e-17	1.0	1.0	0.0	0.0	0.4160118171100377
1.0	0.0	1.0	0.0	0.0	0.8660254037844387	0.49999999999999994	1.0	0.0	0.0	0.8660254037844384	-0.5000000000000004	1.0	0.0	0.0	1.0	0.0	1.0	0.0	0.0	0.40341485120808845
0.8660254037844384	-0.5000000000000004	1.0	0.0	0.0	1.0	0.0	1.0	0.0	0.0	0.5000000000000001	-0.8660254037844386	1.0	0.0	0.0	0.8660254037844384	-0.5000000000000004	1.0	0.0	0.0	0.4907220089087064
-0.8660254037844388	-0.4999999999999998	1.0	0.0	0.0	-0.5000000000000004	-0.8660254037844384	1.0	0.0	0.0	-1.0	1.2246467991473532e-16	1.0	0.0	0.0	-0.8660254037844388	-0.4999999999999998	1.0	0.0	0.0	0.7838101922574074
-1.8369701987210297e-16	-1.0	1.0	0.0	0.0	0.5000000000000001	-0.8660254037844386	1.0	0.0	0.0	-0.5000000000000004	-0.8660254037844384	1.0	0.0	0.0	-1.8369701987210297e-16	-1.0	1.0	0.0	0.0	0.37984944194431824
0.8660254037844384	-0.5000000000000004	1.0	0.0	0.0	1.0	0.0	1.0	0.0	0.0	0.5000000000000001	-0.8660254037844386	1.0	0.0	0.0	0.8660254037844384	-0.5000000000000004	1.0	0.0	0.0	0.5381555950070875
-0.4500000000000004	-0.7794228634059945	0.0	1.0	0.0	-1.6532731788489269e-16	-0.9	0.0	1.0	0.0	-0.779422863405995	-0.4499999999999998	0.0	1.0	0.0	-0.4500000000000004	-0.7794228634059945	0.0	1.0	0.0	0.4714228699613283
-0.44999999999999984	0.7794228634059949	0.0	1.0	0.0	-0.7794228634059949	0.44999999999999996	0.0	1.0	0.0	5.5109105961630896e-17	0.9	0.0	1.0	0.0	-0.44999999999999984	0.7794228634059949	0.0	1.0	0.0	0.38549192849180464
-0.8660254037844388	-0.4999999999999998	1.0	0.0	0.0	-0.5000000000000004	-0.8660254037844384	1.0	0.0	0.0	-1.0	1.2246467991473532e-16	1.0	0.0	0.0	-0.8660254037844388	-0.4999999999999998	1.0	0.0	0.0	0.5435641247952878
0.5000000000000001	0.8660254037844386	1.0	0.0	0.0	6.123233995736766e-17	1.0	1.0	0.0	0.0	0.8660254037844387	0.49999999999999994	1.0	0.0	0.0	0.5000000000000001	0.8660254037844386	1.0	0.0	0.0	0.5829789576538266
0.5000000000000001	0.8660254037844386	1.0	0.0	0.0	6.123233995736766e-17	1.0	1.0	0.0	0.0	0.8660254037844387	0.49999999999999994	1.0	0.0	0.0	0.5000000000000001	0.8660254037844386	1.0	0.0	0.0	0.6561936611480396
0.8660254037844387	0.49999999999999994	1.0	0.0	0.0	0.5000000000000001	0.8660254037844386	1.0	0.0	0.0	1.0	0.0	1.0	0.0	0.0	0.8660254037844387	0.49999999999999994	1.0	0.0	0.0	0.5005481927987192
-1.0	1.2246467991473532e-16	1.0	0.0	0.0	-0.8660254037844388	-0.4999999999999998	1.0	0.0	0.0	-0.8660254037844387	0.49999999999999994	1.0	0.0	0.0	-1.0	1.2246467991473532e-16	1.0	0.0	0.0	0.5505828275738684
0.8660254037844387	0.49999999999999994	1.0	0.0	0.0	0.5000000000000001	0.8660254037844386	1.0	0.0	0.0	1.0	0.0	1.0	0.0	0.0	0.8660254037844387	0.49999999999999994	1.0	0.0	0.0	0.3573483065659276
1.0	0.0	1.0	0.0	0.0	0.8660254037844387	0.49999999999999994	1.0	0.0	0.0	0.8660254037844384	-0.5000000000000004	1.0	0.0	0.0	1.0	0.0	1.0	0.0	0.0	0.5969154406873741
1.0	0.0	1.0	0.0	0.0	0.8660254037844387	0.49999999999999994	1.0	0.0	0.0	0.8660254037844384	-0.5000000000000004	1.0	0.0	0.0	1.0	0.0	1.0	0.0	0.0	0.6528999169682873
6.123233995736766e-17	1.0	1.0	0.0	0.0	-0.49999999999999983	0.8660254037844387	1.0	0.0	0.0	0.5000000000000001	0.8660254037844386	1.0	0.0	0.0	6.123233995736766e-17	1.0	1.0	0.0	0.0	0.3588392074829464
-0.44999999999999984	0.7794228634059949	0.0	1.0	0.0	-0.7794228634059949	0.44999999999999996	0.0	1.0	0.0	5.5109105961630896e-17	0.9	0.0	1.0	0.0	-0.44999999999999984	0.7794228634059949	0.0	1.0	0.0	0.5872039414832858
1.0	0.0	1.0	0.0	0.0	0.8660254037844387	0.49999999999999994	1.0	0.0	0.0	0.8660254037844384	-0.5000000000000004	1.0	0.0	0.0	1.0	0.0	1.0	0.0	0.0	0.6604415819146837
0.5000000000000001	0.8660254037844386	1.0	0.0	0.0	6.123233995736766e-17	1.0	1.0	0.0	0.0	0.8660254037844387	0.49999999999999994	1.0	0.0	0.0	0.5000000000000001	0.8660254037844386	1.0	0.0	0.0	0.6184440499291248
-0.8660254037844387	0.49999999999999994	1.0	0.0	0.0	-1.0	1.2246467991473532e-16	1.0	0.0	0.0	-0.49999999999999983	0.8660254037844387	1.0	0.0	0.0	-0.8660254037844387	0.49999999999999994	1.0	0.0	0.0	0.45866075811164786
0.5000000000000001	0.8660254037844386	1.0	0.0	0.0	6.123233995736766e-17	1.0	1.0	0.0	0.0	0.8660254037844387	0.49999999999999994	1.0	0.0	0.0	0.5000000000000001	0.8660254037844386	1.0	0.0	0.0	0.5989705902591415
-1.8369701987210297e-16	-1.0	1.0	0.0	0.0	0.5000000000000001	-0.8660254037844386	1.0	0.0	0.0	-0.5000000000000004	-0.8660254037844384	1.0	0.0	0.0	-1.8369701987210297e-16	-1.0	1.0	0.0	0.0	0.6929569840680033
0.5000000000000001	-0.8660254037844386	1.0	0.0	0.0	0.8660254037844384	-0.5000000000000004	1.0	0.0	0.0	-1.8369701987210297e-16	-1.0	1.0	0.0	0.0	0.5000000000000001	-0.8660254037844386	1.0	0.0	0.0	0.35787585612118045
0.8660254037844384	-0.5000000000000004	1.0	0.0	0.0	1.0	0.0	1.0	0.0	0.0	0.5000000000000001	-0.8660254037844386	1.0	0.0	0.0	0.8660254037844384	-0.5000000000000004	1.0	0.0	0.0	0.37167930491905554
0.8660254037844387	0.49999999999999994	1.0	0.0	0.0	0.5000000000000001	0.8660254037844386	1.0	0.0	0.0	1.0	0.0	1.0	0.0	0.0	0.8660254037844387	0.49999999999999994	1.0	0.0	0.0	0.4426507759565849
0.5000000000000001	0.8660254037844386	1.0	0.0	0.0	6.123233995736766e-17	1.0	1.0	0.0	0.0	0.8660254037844387	0.49999999999999994	1.0	0.0	0.0	0.5000000000000001	0.8660254037844386	1.0	0.0	0.0	0.385157049208905
6.123233995736766e-17	1.0	1.0	0.0	0.0	-0.49999999999999983	0.8660254037844387	1.0	0.0	0.0	0.5000000000000001	0.8660254037844386	1.0	0.0	0.0	6.123233995736766e-17	1.0	1.0	0.0	0.0	0.7202932258049718
1.0	0.0	1.0	0.0	0.0	0.8660254037844387	0.49999999999999994	1.0	0.0	0.0	0.8660254037844384	-0.5000000000000004	1.0	0.0	0.0	1.0	0.0	1.0	0.0	0.0	0.45145397244815105
-0.49999999999999983	0.8660254037844387	1.0	0.0	0.0	-0.8660254037844387	0.49999999999999994	1.0	0.0	0.0	6.123233995736766e-17	1.0	1.0	0.0	0.0	-0.49999999999999983	0.8660254037844387	1.0	0.0	0.0	0.509438549651588
6.123233995736766e-17	1.0	1.0	0.0	0.0	-0.49999999999999983	0.8660254037844387	1.0	0.0	0.0	0.5000000000000001	0.8660254037844386	1.0	0.0	0.0	6.123233995736766e-17	1.0	1.0	0.0	0.0	0.5323571372867438
-0.49999999999999983	0.8660254037844387	1.0	0.0	0.0	-0.8660254037844387	0.49999999999999994	1.0	0.0	0.0	6.123233995736766e-17	1.0	1.0	0.0	0.0	-0.49999999999999983	0.8660254037844387	1.0	0.0	0.0	0.4231222676373579
6.123233995736766e-17	1.0	1.0	0.0	0.0	-0.49999999999999983	0.8660254037844387	1.0	0.0	0.0	0.5000000000000001	0.8660254037844386	1.0	0.0	0.0	6.123233995736766e-17	1.0	1.0	0.0	0.0	0.580946745019244
-0.8660254037844387	0.49999999999999994	1.0	0.0	0.0	-1.0	1.2246467991473532e-16	1.0	0.0	0.0	-0.49999999999999983	0.8660254037844387	1.0	0.0	0.0	-0.8660254037844387	0.49999999999999994	1.0	0.0	0.0	0.4590048121694214
-0.49999999999999983	0.8660254037844387	1.0	0.0	0.0	-0.8660254037844387	0.49999999999999994	1.0	0.0	0.0	6.123233995736766e-17	1.0	1.0	0.0	0.0	-0.49999999999999983	0.8660254037844387	1.0	0.0	0.0	0.6462252682474804
0.8660254037844384	-0.5000000000000004	1.0	0.0	0.0	1.0	0.0	1.0	0.0	0.0	0.5000000000000001	-0.8660254037844386	1.0	0.0	0.0	0.8660254037844384	-0.5000000000000004	1.0	0.0	0.0	0.5863139883205116
-0.49999999999999983	0.8660254037844387	1.0	0.0	0.0	-0.8660254037844387	0.49999999999999994	1.0	0.0	0.0	6.123233995736766e-17	1.0	1.0	0.0	0.0	-0.49999999999999983	0.8660254037844387	1.0	0.0	0.0	0.5121680451765915
6.123233995736766e-17	1.0	1.0	0.0	0.0	-0.49999999999999983	0.8660254037844387	1.0	0.0	0.0	0.5000000000000001	0.8660254037844386	1.0	0.0	0.0	6.123233995736766e-17	1.0	1.0	0.0	0.0	0.4382835831165793
-1.8369701987210297e-16	-1.0	1.0	0.0	0.0	0.5000000000000001	-0.8660254037844386	1.0	0.0	0.0	-0.5000000000000004	-0.8660254037844384	1.0	0.0	0.0	-1.8369701987210297e-16	-1.0	1.0	0.0	0.0	0.7660570028762919
0.5000000000000001	0.8660254037844386	1.0	0.0	0.0	6.123233995736766e-17	1.0	1.0	0.0	0.0	0.8660254037844387	0.49999999999999994	1.0	0.0	0.0	0.5000000000000001	0.8660254037844386	1.0	0.0	0.0	0.5506011771236163
0.5000000000000001	0.8660254037844386	1.0	0.0	0.0	6.123233995736766e-17	1.0	1.0	0.0	0.0	0.8660254037844387	0.49999999999999994	1.0	0.0	0.0	0.5000000000000001	0.8660254037844386	1.0	0.0	0.0	0.5962869686085078
-0.49999999999999983	0.8660254037844387	1.0	0.0	0.0	-0.8660254037844387	0.49999999999999994	1.0	0.0	0.0	6.123233995736766e-17	1.0	1.0	0.0	0.0	-0.49999999999999983	0.8660254037844387	1.0	0.0	0.0	0.7336975718958295
0.5000000000000001	0.8660254037844386	1.0	0.0	0.0	6.123233995736766e-17	1.0	1.0	0.0	0.0	0.8660254037844387	0.49999999999999994	1.0	0.0	0.0	0.5000000000000001	0.8660254037844386	1.0	0.0	0.0	0.665148241425026
-1.0	1.2246467991473532e-16	1.0	0.0	0.0	-0.8660254037844388	-0.4999999999999998	1.0	0.0	0.0	-0.8660254037844387	0.49999999999999994	1.0	0.0	0.0	-1.0	1.2246467991473532e-16	1.0	0.0	0.0	0.7625430640995646
1.0	0.0	1.0	0.0	0.0	0.8660254037844387	0.49999999999999994	1.0	0.0	0.0	0.8660254037844384	-0.5000000000000004	1.0	0.0	0.0	1.0	0.0	1.0	0.0	0.0	0.5320130832289702
0.8660254037844384	-0.5000000000000004	1.0	0.0	0.0	1.0	0.0	1.0	0.0	0.0	0.5000000000000001	-0.8660254037844386	1.0	0.0	0.0	0.8660254037844384	-0.5000000000000004	1.0	0.0	0.0	0.6314859924124612
0.8660254037844387	0.49999999999999994	1.0	0.0	0.0	0.5000000000000001	0.8660254037844386	1.0	0.0	0.0	1.0	0.0	1.0	0.0	0.0	0.8660254037844387	0.49999999999999994	1.0	0.0	0.0	0.46115629687736537
-0.49999999999999983	0.8660254037844387	1.0	0.0	0.0	-0.8660254037844387	0.49999999999999994	1.0	0.0	0.0	6.123233995736766e-17	1.0	1.0	0.0	0.0	-0.49999999999999983	0.8660254037844387	1.0	0.0	0.0	0.5414309896370918
0.7794228634059949	0.44999999999999996	0.0	1.0	0.0	0.4500000000000001	0.7794228634059948	0.0	1.0	0.0	0.9	0.0	0.0	1.0	0.0	0.7794228634059949	0.44999999999999996	0.0	1.0	0.0	0.6785984613902536
-1.0	1.2246467991473532e-16	1.0	0.0	0.0	-0.8660254037844388	-0.4999999999999998	1.0	0.0	0.0	-0.8660254037844387	0.49999999999999994	1.0	0.0	0.0	-1.0	1.2246467991473532e-16	1.0	0.0	0.0	0.35815109936739925
-0.779422863405995	-0.4499999999999998	0.0	1.0	0.0	-0.4500000000000004	-0.7794228634059945	0.0	1.0	0.0	-0.9	1.1021821192326179e-16	0.0	1.0	0.0	-0.779422863405995	-0.4499999999999998	0.0	1.0	0.0	0.8614746615654918
0.8660254037844384	-0.5000000000000004	1.0	0.0	0.0	1.0	0.0	1.0	0.0	0.0	0.5000000000000001	-0.8660254037844386	1.0	0.0	0.0	0.8660254037844384	-0.5000000000000004	1.0	0.0	0.0	0.8717916959112616
1.0	0.0	1.0	0.0	0.0	0.8660254037844387	0.49999999999999994	1.0	0.0	0.0	0.8660254037844384	-0.5000000000000004	1.0	0.0	0.0	1.0	0.0	1.0	0.0	0.0	0.4452288876961682
0.8660254037844384	-0.5000000000000004	1.0	0.0	0.0	1.0	0.0	1.0	0.0	0.0	0.5000000000000001	-0.8660254037844386	1.0	0.0	0.0	0.8660254037844384	-0.5000000000000004	1.0	0.0	0.0	0.4495135075623082
-1.8369701987210297e-16	-1.0	1.0	0.0	0.0	0.5000000000000001	-0.8660254037844386	1.0	0.0	0.0	-0.5000000000000004	-0.8660254037844384	1.0	0.0	0.0	-1.8369701987210297e-16	-1.0	1.0	0.0	0.0	0.44045800476170816
-0.49999999999999983	0.8660254037844387	1.0	0.0	0.0	-0.8660254037844387	0.49999999999999994	1.0	0.0	0.0	6.123233995736766e-17	1.0	1.0	0.0	0.0	-0.49999999999999983	0.8660254037844387	1.0	0.0	0.0	0.6062599488965039
6.123233995736766e-17	1.0	1.0	0.0	0.0	-0.49999999999999983	0.8660254037844387	1.0	0.0	0.0	0.5000000000000001	0.8660254037844386	1.0	0.0	0.0	6.123233995736766e-17	1.0	1.0	0.0	0.0	0.5483579446669328
6.123233995736766e-17	1.0	1.0	0.0	0.0	-0.49999999999999983	0.8660254037844387	1.0	0.0	0.0	0.5000000000000001	0.8660254037844386	1.0	0.0	0.0	6.123233995736766e-17	1.0	1.0	0.0	0.0	0.40369468184174434
-0.8660254037844387	0.49999999999999994	1.0	0.0	0.0	-1.0	1.2246467991473532e-16	1.0	0.0	0.0	-0.49999999999999983	0.8660254037844387	1.0	0.0	0.0	-0.8660254037844387	0.49999999999999994	1.0	0.0	0.0	0.4333980154961947
-1.0	1.2246467991473532e-16	1.0	0.0	0.0	-0.8660254037844388	-0.4999999999999998	1.0	0.0	0.0	-0.8660254037844387	0.49999999999999994	1.0	0.0	0.0	-1.0	1.2246467991473532e-16	1.0	0.0	0.0	0.7577859433274156
0.5000000000000001	0.8660254037844386	1.0	0.0	0.0	6.123233995736766e-17	1.0	1.0	0.0	0.0	0.8660254037844387	0.49999999999999994	1.0	0.0	0.0	0.5000000000000001	0.8660254037844386	1.0	0.0	0.0	0.569042474620279
1.0	0.0	1.0	0.0	0.0	0.8660254037844387	0.49999999999999994	1.0	0.0	0.0	0.8660254037844384	-0.5000000000000004	1.0	0.0	0.0	1.0	0.0	1.0	0.0	0.0	0.5367518544513714
6.123233995736766e-17	1.0	1.0	0.0	0.0	-0.49999999999999983	0.8660254037844387	1.0	0.0	0.0	0.5000000000000001	0.8660254037844386	1.0	0.0	0.0	6.123233995736766e-17	1.0	1.0	0.0	0.0	0.8587359912656143
-0.7794228634059949	0.44999999999999996	0.0	1.0	0.0	-0.9	1.1021821192326179e-16	0.0	1.0	0.0	-0.44999999999999984	0.7794228634059949	0.0	1.0	0.0	-0.7794228634059949	0.44999999999999996	0.0	1.0	0.0	0.43911390024267277
6.123233995736766e-17	1.0	1.0	0.0	0.0	-0.49999999999999983	0.8660254037844387	1.0	0.0	0.0	0.5000000000000001	0.8660254037844386	1.0	0.0	0.0	6.123233995736766e-17	1.0	1.0	0.0	0.0	0.7900903256586341
-0.8660254037844388	-0.4999999999999998	1.0	0.0	0.0	-0.5000000000000004	-0.8660254037844384	1.0	0.0	0.0	-1.0	1.2246467991473532e-16	1.0	0.0	0.0	-0.8660254037844388	-0.4999999999999998	1.0	0.0	0.0	0.815412704310768
6.123233995736766e-17	1.0	1.0	0.0	0.0	-0.49999999999999983	0.8660254037844387	1.0	0.0	0.0	0.5000000000000001	0.8660254037844386	1.0	0.0	0.0	6.123233995736766e-17	1.0	1.0	0.0	0.0	0.5305130075370775
0.8660254037844384	-0.5000000000000004	1.0	0.0	0.0	1.0	0.0	1.0	0.0	0.0	0.5000000000000001	-0.8660254037844386	1.0	0.0	0.0	0.8660254037844384	-0.5000000000000004	1.0	0.0	0.0	0.5964016532944322
0.4500000000000001	-0.7794228634059948	0.0	1.0	0.0	0.7794228634059945	-0.4500000000000004	0.0	1.0	0.0	-1.6532731788489269e-16	-0.9	0.0	1.0	0.0	0.4500000000000001	-0.7794228634059948	0.0	1.0	0.0	0.376349265329902
6.123233995736766e-17	1.0	1.0	0.0	0.0	-0.49999999999999983	0.8660254037844387	1.0	0.0	0.0	0.5000000000000001	0.8660254037844386	1.0	0.0	0.0	6.123233995736766e-17	1.0	1.0	0.0	0.0	0.5592346402800141
0.8660254037844384	-0.5000000000000004	1.0	0.0	0.0	1.0	0.0	1.0	0.0	0.0	0.5000000000000001	-0.8660254037844386	1.0	0.0	0.0	0.8660254037844384	-0.5000000000000004	1.0	0.0	0.0	0.41742014505319075
-0.8660254037844388	-0.4999999999999998	1.0	0.0	0.0	-0.5000000000000004	-0.8660254037844384	1.0	0.0	0.0	-1.0	1.2246467991473532e-16	1.0	0.0	0.0	-0.8660254037844388	-0.4999999999999998	1.0	0.0	0.0	0.4447563867901591
-0.8660254037844388	-0.4999999999999998	1.0	0.0	0.0	-0.5000000000000004	-0.8660254037844384	1.0	0.0	0.0	-1.0	1.2246467991473532e-16	1.0	0.0	0.0	-0.8660254037844388	-0.4999999999999998	1.0	0.0	0.0	0.5699049034584314
0.5000000000000001	0.8660254037844386	1.0	0.0	0.0	6.123233995736766e-17	1.0	1.0	0.0	0.0	0.8660254037844387	0.49999999999999994	1.0	0.0	0.0	0.5000000000000001	0.8660254037844386	1.0	0.0	0.0	0.788938891411952
0.5000000000000001	0.8660254037844386	1.0	0.0	0.0	6.123233995736766e-17	1.0	1.0	0.0	0.0	0.8660254037844387	0.49999999999999994	1.0	0.0	0.0	0.5000000000000001	0.8660254037844386	1.0	0.0	0.0	0.3741381445852773
0.8660254037844387	0.49999999999999994	1.0	0.0	0.0	0.5000000000000001	0.8660254037844386	1.0	0.0	0.0	1.0	0.0	1.0	0.0	0.0	0.8660254037844387	0.49999999999999994	1.0	0.0	0.0	0.5163884416186137
-0.5000000000000004	-0.8660254037844384	1.0	0.0	0.0	-1.8369701987210297e-16	-1.0	1.0	0.0	0.0	-0.8660254037844388	-0.4999999999999998	1.0	0.0	0.0	-0.5000000000000004	-0.8660254037844384	1.0	0.0	0.0	0.6864612434572386
0.8660254037844384	-0.5000000000000004	1.0	0.0	0.0	1.0	0.0	1.0	0.0	0.0	0.5000000000000001	-0.8660254037844386	1.0	0.0	0.0	0.8660254037844384	-0.5000000000000004	1.0	0.0	0.0	0.5507571482964736
6.123233995736766e-17	1.0	1.0	0.0	0.0	-0.49999999999999983	0.8660254037844387	1.0	0.0	0.0	0.5000000000000001	0.8660254037844386	1.0	0.0	0.0	6.123233995736766e-17	1.0	1.0	0.0	0.0	0.5496148888246655
-0.5000000000000004	-0.8660254037844384	1.0	0.0	0.0	-1.8369701987210297e-16	-1.0	1.0	0.0	0.0	-0.8660254037844388	-0.4999999999999998	1.0	0.0	0.0	-0.5000000000000004	-0.8660254037844384	1.0	0.0	0.0	0.5549179087018152
6.123233995736766e-17	1.0	1.0	0.0	0.0	-0.49999999999999983	0.8660254037844387	1.0	0.0	0.0	0.5000000000000001	0.8660254037844386	1.0	0.0	0.0	6.123233995736766e-17	1.0	1.0	0.0	0.0	0.4167687360371395
6.123233995736766e-17	1.0	1.0	0.0	0.0	-0.49999999999999983	0.8660254037844387	1.0	0.0	0.0	0.5000000000000001	0.8660254037844386	1.0	0.0	0.0	6.123233995736766e-17	1.0	1.0	0.0	0.0	0.40982801884498754
0.8660254037844384	-0.5000000000000004	1.0	0.0	0.0	1.0	0.0	1.0	0.0	0.0	0.5000000000000001	-0.8660254037844386	1.0	0.0	0.0	0.8660254037844384	-0.5000000000000004	1.0	0.0	0.0	0.8461023262641693
1.0	0.0	1.0	0.0	0.0	0.8660254037844387	0.49999999999999994	1.0	0.0	0.0	0.8660254037844384	-0.5000000000000004	1.0	0.0	0.0	1.0	0.0	1.0	0.0	0.0	0.8018615618219268
0.8660254037844384	-0.5000000000000004	1.0	0.0	0.0	1.0	0.0	1.0	0.0	0.0	0.5000000000000001	-0.8660254037844386	1.0	0.0	0.0	0.8660254037844384	-0.5000000000000004	1.0	0.0	0.0	0.4195762171485717
0.9	0.0	0.0	1.0	0.0	0.7794228634059949	0.44999999999999996	0.0	1.0	0.0	0.7794228634059945	-0.4500000000000004	0.0	1.0	0.0	0.9	0.0	0.0	1.0	0.0	0.8493823082816105
6.123233995736766e-17	1.0	1.0	0.0	0.0	-0.49999999999999983	0.8660254037844387	1.0	0.0	0.0	0.5000000000000001	0.8660254037844386	1.0	0.0	0.0	6.123233995736766e-17	1.0	1.0	0.0	0.0	0.6811857479047109
1.0	0.0	1.0	0.0	0.0	0.8660254037844387	0.49999999999999994	1.0	0.0	0.0	0.8660254037844384	-0.5000000000000004	1.0	0.0	0.0	1.0	0.0	1.0	0.0	0.0	0.7264861988448958
0.8660254037844387	0.49999999999999994	1.0	0.0	0.0	0.5000000000000001	0.8660254037844386	1.0	0.0	0.0	1.0	0.0	1.0	0.0	0.0	0.8660254037844387	0.49999999999999994	1.0	0.0	0.0	0.4680327906453995
-0.8660254037844387	0.49999999999999994	1.0	0.0	0.0	-1.0	1.2246467991473532e-16	1.0	0.0	0.0	-0.49999999999999983	0.8660254037844387	1.0	0.0	0.0	-0.8660254037844387	0.49999999999999994	1.0	0.0	0.0	0.43151718664703265
-0.5000000000000004	-0.8660254037844384	1.0	0.0	0.0	-1.8369701987210297e-16	-1.0	1.0	0.0	0.0	-0.8660254037844388	-0.4999999999999998	1.0	0.0	0.0	-0.5000000000000004	-0.8660254037844384	1.0	0.0	0.0	0.3557473083504214
-0.8660254037844387	0.49999999999999994	1.0	0.0	0.0	-1.0	1.2246467991473532e-16	1.0	0.0	0.0	-0.49999999999999983	0.8660254037844387	1.0	0.0	0.0	-0.8660254037844387	0.49999999999999994	1.0	0.0	0.0	0.4298611397822826
0.5000000000000001	0.8660254037844386	1.0	0.0	0.0	6.123233995736766e-17	1.0	1.0	0.0	0.0	0.8660254037844387	0.49999999999999994	1.0	0.0	0.0	0.5000000000000001	0.8660254037844386	1.0	0.0	0.0	0.6030900641775503
-1.0	1.2246467991473532e-16	1.0	0.0	0.0	-0.8660254037844388	-0.4999999999999998	1.0	0.0	0.0	-0.8660254037844387	0.49999999999999994	1.0	0.0	0.0	-1.0	1.2246467991473532e-16	1.0	0.0	0.0	0.8114813132772755
-0.8660254037844387	0.49999999999999994	1.0	0.0	0.0	-1.0	1.2246467991473532e-16	1.0	0.0	0.0	-0.49999999999999983	0.8660254037844387	1.0	0.0	0.0	-0.8660254037844387	0.49999999999999994	1.0	0.0	0.0	0.5321140057525838
1.0	0.0	1.0	0.0	0.0	0.8660254037844387	0.49999999999999994	1.0	0.0	0.0	0.8660254037844384	-0.5000000000000004	1.0	0.0	0.0	1.0	0.0	1.0	0.0	0.0	0.7873333058090086
0.5000000000000001	0.8660254037844386	1.0	0.0	0.0	6.123233995736766e-17	1.0	1.0	0.0	0.0	0.8660254037844387	0.49999999999999994	1.0	0.0	0.0	0.5000000000000001	0.8660254037844386	1.0	0.0	0.0	0.5136818830307951
5.5109105961630896e-17	0.9	0.0	1.0	0.0	-0.44999999999999984	0.7794228634059949	0.0	1.0	0.0	0.4500000000000001	0.7794228634059948	0.0	1.0	0.0	5.5109105961630896e-17	0.9	0.0	1.0	0.0	0.47244126997233804
-0.49999999999999983	0.8660254037844387	1.0	0.0	0.0	-0.8660254037844387	0.49999999999999994	1.0	0.0	0.0	6.123233995736766e-17	1.0	1.0	0.0	0.0	-0.49999999999999983	0.8660254037844387	1.0	0.0	0.0	0.5218611948309319
-0.49999999999999983	0.8660254037844387	1.0	0.0	0.0	-0.8660254037844387	0.49999999999999994	1.0	0.0	0.0	6.123233995736766e-17	1.0	1.0	0.0	0.0	-0.49999999999999983	0.8660254037844387	1.0	0.0	0.0	0.731692883585869
-0.49999999999999983	0.8660254037844387	1.0	0.0	0.0	-0.8660254037844387	0.49999999999999994	1.0	0.0	0.0	6.123233995736766e-17	1.0	1.0	0.0	0.0	-0.8660254037844387	0.49999999999999994	1.0	0.0	0.0	0.45504589681130697
0.7794228634059945	-0.4500000000000004	0.0	1.0	0.0	0.9	0.0	0.0	1.0	0.0	0.4500000000000001	-0.7794228634059948	0.0	1.0	0.0	0.9	0.0	0.0	1.0	0.0	0.6008972929826735
-1.0	1.2246467991473532e-16	1.0	0.0	0.0	-0.8660254037844388	-0.4999999999999998	1.0	0.0	0.0	-0.8660254037844387	0.49999999999999994	1.0	0.0	0.0	-0.8660254037844388	-0.4999999999999998	1.0	0.0	0.0	0.39278128712916704
-0.8660254037844387	0.49999999999999994	1.0	0.0	0.0	-1.0	1.2246467991473532e-16	1.0	0.0	0.0	-0.49999999999999983	0.8660254037844387	1.0	0.0	0.0	-1.0	1.2246467991473532e-16	1.0	0.0	0.0	0.6696438811132671
-1.8369701987210297e-16	-1.0	1.0	0.0	0.0	0.5000000000000001	-0.8660254037844386	1.0	0.0	0.0	-0.5000000000000004	-0.8660254037844384	1.0	0.0	0.0	0.5000000000000001	-0.8660254037844386	1.0	0.0	0.0	0.3945199069677828
-1.8369701987210297e-16	-1.0	1.0	0.0	0.0	0.5000000000000001	-0.8660254037844386	1.0	0.0	0.0	-0.5000000000000004	-0.8660254037844384	1.0	0.0	0.0	0.5000000000000001	-0.8660254037844386	1.0	0.0	0.0	0.8019211978586075
0.5000000000000001	0.8660254037844386	1.0	0.0	0.0	6.123233995736766e-17	1.0	1.0	0.0	0.0	0.8660254037844387	0.49999999999999994	1.0	0.0	0.0	6.123233995736766e-17	1.0	1.0	0.0	0.0	0.5220813894279069
-0.8660254037844387	0.49999999999999994	1.0	0.0	0.0	-1.0	1.2246467991473532e-16	1.0	0.0	0.0	-0.49999999999999983	0.8660254037844387	1.0	0.0	0.0	-1.0	1.2246467991473532e-16	1.0	0.0	0.0	0.39370793939143717
-0.8660254037844387	0.49999999999999994	1.0	0.0	0.0	-1.0	1.2246467991473532e-16	1.0	0.0	0.0	-0.49999999999999983	0.8660254037844387	1.0	0.0	0.0	-1.0	1.2246467991473532e-16	1.0	0.0	0.0	0.45974796893421227
0.8660254037844387	0.49999999999999994	1.0	0.0	0.0	0.5000000000000001	0.8660254037844386	1.0	0.0	0.0	1.0	0.0	1.0	0.0	0.0	0.5000000000000001	0.8660254037844386	1.0	0.0	0.0	0.7978200734899467
6.123233995736766e-17	1.0	1.0	0.0	0.0	-0.49999999999999983	0.8660254037844387	1.0	0.0	0.0	0.5000000000000001	0.8660254037844386	1.0	0.0	0.0	-0.49999999999999983	0.8660254037844387	1.0	0.0	0.0	0.4809600484428113
0.7794228634059945	-0.4500000000000004	0.0	1.0	0.0	0.9	0.0	0.0	1.0	0.0	0.4500000000000001	-0.7794228634059948	0.0	1.0	0.0	0.9	0.0	0.0	1.0	0.0	0.5323342003495589
-1.0	1.2246467991473532e-16	1.0	0.0	0.0	-0.8660254037844388	-0.4999999999999998	1.0	0.0	0.0	-0.8660254037844387	0.49999999999999994	1.0	0.0	0.0	-0.8660254037844388	-0.4999999999999998	1.0	0.0	0.0	0.5717994944699044
-0.49999999999999983	0.8660254037844387	1.0	0.0	0.0	-0.8660254037844387	0.49999999999999994	1.0	0.0	0.0	6.123233995736766e-17	1.0	1.0	0.0	0.0	-0.8660254037844387	0.49999999999999994	1.0	0.0	0.0	0.6423168141511728
0.5000000000000001	-0.8660254037844386	1.0	0.0	0.0	0.8660254037844384	-0.5000000000000004	1.0	0.0	0.0	-1.8369701987210297e-16	-1.0	1.0	0.0	0.0	0.8660254037844384	-0.5000000000000004	1.0	0.0	0.0	0.3807485698819665
-0.9	1.1021821192326179e-16	0.0	1.0	0.0	-0.779422863405995	-0.4499999999999998	0.0	1.0	0.0	-0.7794228634059949	0.44999999999999996	0.0	1.0	0.0	-0.779422863405995	-0.4499999999999998	0.0	1.0	0.0	0.38723054833042037
0.8660254037844387	0.49999999999999994	1.0	0.0	0.0	0.5000000000000001	0.8660254037844386	1.0	0.0	0.0	1.0	0.0	1.0	0.0	0.0	0.5000000000000001	0.8660254037844386	1.0	0.0	0.0	0.5869149360747561
5.5109105961630896e-17	0.9	0.0	1.0	0.0	-0.44999999999999984	0.7794228634059949	0.0	1.0	0.0	0.4500000000000001	0.7794228634059948	0.0	1.0	0.0	-0.44999999999999984	0.7794228634059949	0.0	1.0	0.0	0.6738367532306676
-0.8660254037844388	-0.4999999999999998	1.0	0.0	0.0	-0.5000000000000004	-0.8660254037844384	1.0	0.0	0.0	-1.0	1.2246467991473532e-16	1.0	0.0	0.0	-0.5000000000000004	-0.8660254037844384	1.0	0.0	0.0	0.6223249797008106
-0.5000000000000004	-0.8660254037844384	1.0	0.0	0.0	-1.8369701987210297e-16	-1.0	1.0	0.0	0.0	-0.8660254037844388	-0.4999999999999998	1.0	0.0	0.0	-1.8369701987210297e-16	-1.0	1.0	0.0	0.0	0.6789287532857162
-0.7794228634059949	0.44999999999999996	0.0	1.0	0.0	-0.9	1.1021821192326179e-16	0.0	1.0	0.0	-0.44999999999999984	0.7794228634059949	0.0	1.0	0.0	-0.9	1.1021821192326179e-16	0.0	1.0	0.0	0.370853575180399
0.8660254037844387	0.49999999999999994	1.0	0.0	0.0	0.5000000000000001	0.8660254037844386	1.0	0.0	0.0	1.0	0.0	1.0	0.0	0.0	0.5000000000000001	0.8660254037844386	1.0	0.0	0.0	0.7313763538527173
6.123233995736766e-17	1.0	1.0	0.0	0.0	-0.49999999999999983	0.8660254037844387	1.0	0.0	0.0	0.5000000000000001	0.8660254037844386	1.0	0.0	0.0	-0.49999999999999983	0.8660254037844387	1.0	0.0	0.0	0.5724233791613338
0.8660254037844384	-0.5000000000000004	1.0	0.0	0.0	1.0	0.0	1.0	0.0	0.0	0.5000000000000001	-0.8660254037844386	1.0	0.0	0.0	1.0	0.0	1.0	0.0	0.0	0.43126029295056173
-0.5000000000000004	-0.8660254037844384	1.0	0.0	0.0	-1.8369701987210297e-16	-1.0	1.0	0.0	0.0	-0.8660254037844388	-0.4999999999999998	1.0	0.0	0.0	-1.8369701987210297e-16	-1.0	1.0	0.0	0.0	0.49558005220446905
0.8660254037844387	0.49999999999999994	1.0	0.0	0.0	0.5000000000000001	0.8660254037844386	1.0	0.0	0.0	1.0	0.0	1.0	0.0	0.0	0.5000000000000001	0.8660254037844386	1.0	0.0	0.0	0.5871672423837899
-0.8660254037844388	-0.4999999999999998	1.0	0.0	0.0	-0.5000000000000004	-0.8660254037844384	1.0	0.0	0.0	-1.0	1.2246467991473532e-16	1.0	0.0	0.0	-0.5000000000000004	-0.8660254037844384	1.0	0.0	0.0	0.5868507126506384
-0.8660254037844387	0.49999999999999994	1.0	0.0	0.0	-1.0	1.2246467991473532e-16	1.0	0.0	0.0	-0.49999999999999983	0.8660254037844387	1.0	0.0	0.0	-1.0	1.2246467991473532e-16	1.0	0.0	0.0	0.564262416910945
1.0	0.0	1.0	0.0	0.0	0.8660254037844387	0.49999999999999994	1.0	0.0	0.0	0.8660254037844384	-0.5000000000000004	1.0	0.0	0.0	0.8660254037844387	0.49999999999999994	1.0	0.0	0.0	0.5458027698645345
1.0	0.0	1.0	0.0	0.0	0.8660254037844387	0.49999999999999994	1.0	0.0	0.0	0.8660254037844384	-0.5000000000000004	1.0	0.0	0.0	0.8660254037844387	0.49999999999999994	1.0	0.0	0.0	0.36221552463656426
-0.8660254037844388	-0.4999999999999998	1.0	0.0	0.0	-0.5000000000000004	-0.8660254037844384	1.0	0.0	0.0	-1.0	1.2246467991473532e-16	1.0	0.0	0.0	-0.5000000000000004	-0.8660254037844384	1.0	0.0	0.0	0.8537724380588011
0.8660254037844387	0.49999999999999994	1.0	0.0	0.0	0.5000000000000001	0.8660254037844386	1.0	0.0	0.0	1.0	0.0	1.0	0.0	0.0	0.5000000000000001	0.8660254037844386	1.0	0.0	0.0	0.5380546724834739
0.8660254037844387	0.49999999999999994	1.0	0.0	0.0	0.5000000000000001	0.8660254037844386	1.0	0.0	0.0	1.0	0.0	1.0	0.0	0.0	0.5000000000000001	0.8660254037844386	1.0	0.0	0.0	0.5868186009385795
